2031 50
career -0.08473521 -0.013465572 0.13131712 -0.12768474 -0.12170234 0.14081475 0.020897128 0.138396 -0.09705505 0.13607113 0.14816532 0.05484037 0.13652338 0.15912716 0.120219044 0.13596804 0.1301597 -0.13393292 -0.12936544 0.13689645 -0.14077792 0.09968593 0.094688065 0.115385726 0.096920416 0.13211787 -0.1448223 0.08939438 -0.1132633 -0.106539585 0.110138305 -0.08737152 -0.11355334 0.10641843 -0.015873244 0.1308009 0.1669393 0.1607949 -0.12457077 -0.064942986 0.04567794 0.119592674 -0.1449146 -0.14529814 0.12688604 0.13946661 -0.14995098 -0.14877436 0.1416532 0.11681074
june -0.10806409 0.09952691 0.14720012 -0.12785465 -0.1401903 0.12346555 0.042507764 0.13545778 -0.12902482 0.14141098 0.15005733 0.06424429 0.12978785 0.14515774 0.13968867 0.07969249 0.13787039 -0.1497796 -0.15078312 0.1309701 -0.14796087 0.1478385 0.122156106 0.14044929 0.06431733 0.11452058 -0.16358285 0.10208653 -0.14014348 -0.16558655 0.06864396 -0.1175863 -0.14738686 0.12868384 0.06212756 0.1582549 0.10718589 0.1415286 -0.13571155 -0.11805725 0.062027436 0.14549601 -0.122026525 -0.12285993 0.15150875 0.104064904 -0.12661164 -0.14524543 0.088088565 0.11896837
2009 -0.06849343 0.05679388 0.092735045 -0.08554227 -0.07907535 0.07902787 -0.008935006 0.08477018 -0.0906034 0.091226876 0.081059046 -0.030603578 0.088564724 0.08689614 0.055502843 0.048773017 0.08966406 -0.07758725 -0.078100994 0.08102192 -0.084808305 0.059258655 0.086277135 0.09529964 0.075210854 0.07155593 -0.07980905 0.11283612 -0.07239568 -0.06781566 0.03991509 -0.10429203 -0.05598514 0.10272098 0.093243316 0.08896439 0.07282717 0.0850737 -0.09970027 -0.0321885 0.054140303 0.1017256 -0.045113493 -0.074777074 0.08172213 0.0386097 -0.08312103 -0.082597524 0.084782496 0.083694614
february -0.048106935 0.029140137 0.054307293 -0.072643965 -0.05710992 0.0634634 0.020398391 0.055763066 -0.06382903 0.059284892 0.08045177 0.049270492 0.058654614 0.087596744 0.07371743 0.0597118 0.08023159 -0.0596658 -0.058195535 0.06967285 -0.052778773 0.06590427 0.06674277 0.04955006 0.032278094 0.057584967 -0.072397016 0.06030528 -0.061282113 -0.065870054 0.03911349 -0.0529746 -0.08360942 0.062119268 0.041050896 0.07700577 0.043182816 0.043798883 -0.0934754 -0.086789355 0.031682555 0.037948783 -0.06595114 -0.06025159 0.050353587 0.03833116 -0.067073844 -0.06676018 0.04391963 0.07292289
2013 -0.121646754 0.06993682 0.12211698 -0.10292426 -0.09831086 0.09864424 -0.056860466 0.10358609 -0.08961968 0.1267669 0.12264731 0.00792492 0.105547026 0.11847624 0.093802206 0.11594666 0.11798991 -0.11662977 -0.10583312 0.12061846 -0.114296615 0.1173861 0.12214889 0.1170846 0.09946868 0.09867315 -0.10984645 0.13030213 -0.108995296 -0.10498268 0.097752444 -0.10789985 -0.11226389 0.113729864 0.062544174 0.11308708 0.092998736 0.11375218 -0.15646364 -0.12455363 0.040089615 0.15682839 -0.100830756 -0.10199295 0.10551649 0.10373335 -0.11341132 -0.13034657 0.06545009 0.12618792
sow -0.049777456 0.022912083 0.058972947 -0.067819335 -0.08143944 0.057078626 -0.03376579 0.048251003 -0.070611365 0.06755759 0.0662525 0.025614934 0.07726705 0.049198437 0.049240444 0.07602755 0.07335703 -0.07116063 -0.062796995 0.059192035 -0.059984278 0.04831462 0.07762798 0.06034299 0.032490905 0.04117011 -0.05988772 0.06942962 -0.065998055 -0.07528589 0.02767159 -0.07687601 -0.06899255 0.07182177 0.04179355 0.048728395 0.03791914 0.057732094 -0.06591233 -0.0081658345 0.04098436 0.031674065 -0.073680475 -0.03359378 0.029824533 0.05311556 -0.06587977 -0.058145095 0.04825594 0.05289186
technical -0.06100818 0.0047479384 0.03688838 -0.05172704 -0.0486765 0.043098405 0.044519037 0.04387742 -0.044237647 0.04448793 0.04692038 0.04318648 0.04103609 0.042411156 0.05218768 0.040948942 0.042775963 -0.040281978 -0.03798026 0.040001616 -0.035302985 0.036048833 0.046123948 0.04326746 0.018325377 0.04107461 -0.046640743 0.046135668 -0.047074407 -0.04585042 0.0177208 -0.03531679 -0.049715634 0.030052677 -0.015783953 0.045679323 0.039696686 0.037771013 -0.042331547 -0.03314671 0.0199686 0.045253187 -0.045993205 -0.040455863 0.044806797 0.043422677 -0.053828515 -0.043871716 0.052915655 0.037476584
advisor -0.023688367 0.026925227 0.042113103 -0.040984508 -0.03882735 0.038687684 0.0022271825 0.0452645 -0.045735717 0.042246055 0.045226615 0.044689234 0.040264297 0.04409113 0.049926165 0.040046815 0.0397642 -0.040386837 -0.040852897 0.038827393 -0.040730692 0.043815516 0.040432304 0.04341585 0.027138999 0.042793382 -0.048385974 0.027062817 -0.04563012 -0.04125809 0.04802314 -0.023183808 -0.045685314 0.045775525 0.02933951 0.039032295 0.039850906 0.04442216 -0.04295962 -0.033037975 0.020094018 0.045095768 -0.04459389 -0.038349714 0.04018294 0.044882275 -0.041212615 -0.042164065 0.028540684 0.025468629
prime -0.03152115 -0.14304839 0.098727174 -0.10391013 -0.1110037 0.10642385 0.16256456 0.11771641 -0.1016988 0.12434372 0.12071384 0.13162073 0.08329616 0.12281099 0.12382438 0.10615996 0.10280666 -0.11171486 -0.11597231 0.11474112 -0.109229445 0.0873715 0.06408376 0.107822284 -0.10951084 0.080735005 -0.1253702 -0.07389526 -0.107376516 -0.10901662 0.12477703 -0.018436154 -0.11435721 -0.07069315 -0.09795896 0.1317385 0.12699792 0.11287836 -0.06529237 -0.13437153 -0.04901961 0.14375311 -0.12405585 -0.12672871 0.124491714 0.124192305 -0.11598594 -0.114831805 0.11983998 0.01245406
minister -0.042065613 -0.12545606 0.17182863 -0.16512251 -0.16467915 0.1582472 0.15577982 0.16410325 -0.1381466 0.1563552 0.16056912 0.1528067 0.14613631 0.16720751 0.1510351 0.13520761 0.15955763 -0.16186568 -0.1687312 0.16512479 -0.16638023 0.1699469 0.14711492 0.15301101 -0.11617968 0.1030875 -0.14574048 -0.11470443 -0.14657763 -0.14849472 0.15100133 -0.045575052 -0.16725 -0.019566609 -0.11720916 0.16587336 0.17705727 0.16817577 -0.12574838 -0.1555164 -0.022171723 0.19353242 -0.1713446 -0.16703892 0.16527995 0.1510055 -0.1634255 -0.16307935 0.1378217 0.07132776
chad -0.027743762 0.0010957232 0.028501363 -0.029287813 -0.02962691 0.030053927 0.030714545 0.03008954 -0.029830616 0.03028287 0.0303187 0.030741785 0.028738188 0.029343538 0.030566879 0.029922608 0.029233934 -0.030276356 -0.02989513 0.030228952 -0.02964907 0.029995376 0.028972039 0.030331058 0.00024197654 0.028357517 -0.030402113 0.0023576636 -0.029946981 -0.03034443 0.03072629 -0.027323326 -0.03010848 0.008073832 0.005964529 0.02968953 0.030093824 0.029977856 -0.028595278 -0.031153133 0.023216005 0.030753575 -0.030646665 -0.029938024 0.030016104 0.030427935 -0.03016179 -0.029749345 0.030988203 0.027027499
microfinance -0.029116346 0.02400293 0.029266573 -0.028953852 -0.029412359 0.029378925 0.0005769971 0.029271187 -0.029280698 0.029464366 0.028717984 0.029800514 0.02949053 0.029392974 0.02926818 0.029264722 0.029504966 -0.029469935 -0.029554239 0.029456126 -0.029467193 0.029934209 0.02928426 0.029599404 0.026988208 0.02919795 -0.029189438 0.028826471 -0.029644284 -0.029454993 0.029284874 -0.029281458 -0.029642286 0.028944593 0.029902542 0.029073166 0.029715238 0.029614499 -0.028860174 -0.02972775 0.030069863 0.02896309 -0.029880987 -0.028944809 0.02917439 0.029452156 -0.028642837 -0.029418558 0.029023023 0.02951024
<UNK> -0.08325298 0.11327499 0.037765384 -0.08405793 -0.0065175933 0.014929669 -0.025465785 0.094106086 -0.11219451 0.038516585 0.14425631 0.022119066 0.03309655 0.05526508 0.061767004 0.020006146 0.050833654 0.016659228 -0.01992455 0.024075946 0.001189274 0.039914597 0.03332464 0.08344754 0.07283218 0.07374194 -0.13310614 0.022121018 -0.027452363 -0.017345775 -0.013916125 -0.093608305 -0.025102302 0.09333866 0.110741675 0.1417576 0.048955165 0.0050537693 -0.07564141 -0.01056592 -0.010791541 0.12894145 0.012879497 -0.12961753 0.05762382 0.08591138 -0.073159955 -0.10645047 0.11609355 0.021130595
development -0.0785291 0.042568296 0.074663594 -0.0643027 -0.06593275 0.06649789 -0.022868887 0.07895961 -0.0745217 0.07309974 0.056499276 0.020559583 0.069155484 0.07211235 0.078831844 0.062197898 0.072572164 -0.07152023 -0.07673415 0.07102769 -0.07914669 0.0697366 0.05438689 0.057875354 0.035175372 0.07259431 -0.078797534 0.058537945 -0.066816024 -0.067210644 0.04078701 -0.059640463 -0.062389612 0.048342634 0.0128041385 0.064962484 0.06193508 0.06720069 -0.06032358 -0.04993757 0.05501363 0.048105028 -0.06556854 -0.07763994 0.06661573 0.060768526 -0.06391691 -0.06354355 0.021241093 0.06467085
october -0.077871874 0.067391366 0.104710184 -0.10234796 -0.09366607 0.11325436 0.0009816228 0.08187945 -0.11471803 0.0722307 0.10385181 0.041631404 0.113849446 0.12083126 0.08410401 0.11174591 0.12545078 -0.11689339 -0.110587806 0.113952085 -0.12681593 0.11733972 0.12230489 0.10413335 0.06661193 0.09751866 -0.12105135 0.097602226 -0.1004899 -0.10597141 0.088449135 -0.089717485 -0.11418324 0.103403784 0.05908096 0.08349698 0.10902375 0.09440355 -0.117814496 -0.07229873 0.07382843 0.056948915 -0.09138779 -0.09735074 0.11910044 0.06676253 -0.109658204 -0.103408396 0.037259217 0.12616543
economic -0.016323145 0.00050833466 -0.017306833 -8.361948e-05 -0.005569835 -0.0010121088 0.014425751 -0.018392984 -0.014545333 -0.001371108 -0.017251361 0.0012554363 0.015250784 0.012434128 0.0074721044 0.01767906 0.00021602276 -0.00072357256 -0.018147523 0.017151723 -0.008194032 -0.010324089 -0.0012624088 -0.009442444 -0.00062566233 -0.0138650015 0.0013727096 0.0042287973 -9.4459196e-05 0.008075405 0.0018406521 -0.014229746 0.0137402965 0.005024869 -0.0008956381 0.018014116 0.018457692 -0.005344481 0.0033324226 0.018184675 -0.0011969648 -0.0005919709 -0.00036378953 0.0034017854 -0.00060164934 -0.015004642 0.016653074 0.00072778575 0.0009452556 0.015077747
affairs -0.031995725 0.026059456 0.03323035 -0.034215316 -0.034545597 0.035174042 0.020394184 0.035053827 -0.03618414 0.027649734 0.033007197 0.035748377 0.029096792 0.034746457 0.035914674 0.03260463 0.033920567 -0.0322763 -0.03186539 0.034312773 -0.034972962 0.032742757 0.035486866 0.028954685 0.03203234 0.031241443 -0.030736513 0.033776637 -0.03555449 -0.033510584 0.036222376 -0.03440184 -0.02982206 0.031665362 0.0439577 0.03777865 0.030248314 0.034933567 -0.033387225 -0.039913118 0.042314105 0.035531092 -0.025477247 -0.029613694 0.03508383 0.029817894 -0.034168076 -0.034555964 0.036465507 0.035140503
presidency -0.023374444 -0.021953227 0.025014732 -0.02485625 -0.025038518 0.02164414 3.922266e-05 0.0021262318 -0.023744522 0.025508225 0.024542658 0.025092045 0.024687983 0.0020059354 0.02218397 0.018150447 0.024143249 -0.020960657 -0.019730203 0.024489108 -0.024596114 0.024309546 0.024749659 0.024429817 0.023382757 0.024722172 -0.0022794143 0.0020615766 -0.002393825 -0.024626119 0.0042860727 -0.002256569 -0.023626842 0.0251535 0.025022218 0.025445014 0.025109975 0.022664767 -0.02486443 -0.024813514 -0.023689436 0.0020862394 -0.022926947 -0.024038728 0.025332833 -0.024643274 -0.023851411 -0.0017704562 0.025062973 0.024923826
republic -0.025713159 0.025479851 0.005949827 -0.005701279 -0.025671585 0.0060796505 0.02549033 0.02582964 -0.025676012 0.025835186 0.0060386355 0.025810437 0.025765223 0.0254654 0.025575295 0.02583545 0.02560298 -0.025522355 -0.025429966 0.0057005966 -0.025595417 0.0059446706 0.02544334 0.005792425 0.005669791 0.025740113 -0.0058701625 0.025823364 -0.0060047708 -0.025654783 0.005736143 -0.025661474 -0.025688566 0.025616292 0.025627583 0.005934419 0.005805477 0.005786563 -0.02586013 -0.00722885 0.0059265727 0.005843362 -0.005745162 -0.00601304 0.005817832 0.005924475 -0.025622876 -0.005901655 0.025490224 0.025783867
april -0.060870312 0.09075573 0.083736286 -0.09723107 -0.09488241 0.09059781 -0.052014958 0.06867105 -0.06489217 0.09366701 0.08311558 0.03607719 0.074736744 0.07918773 0.06310097 0.10533719 0.07745081 -0.0725991 -0.082531914 0.0879747 -0.075717546 0.07001962 0.09815667 0.106534526 0.068236664 0.08615395 -0.07780718 0.056924812 -0.07380441 -0.07242734 0.0013176402 -0.09756507 -0.075180456 0.091306515 0.08049121 0.08701796 0.03912334 0.07093424 -0.0704709 -0.07216451 0.04784809 0.053662267 -0.080276236 -0.08475589 0.09755476 0.08941847 -0.10080411 -0.093925275 0.05005785 0.07400062
2014 -0.098584704 0.040374465 0.10507972 -0.121453024 -0.09528378 0.11450356 -0.023500826 0.082637936 -0.12924969 0.11301286 0.12255831 0.07282773 0.10672363 0.11657978 0.10796058 0.100419335 0.079110846 -0.10913296 -0.09875458 0.12030142 -0.09884042 0.089456946 0.10780186 0.10328175 0.12245149 0.09837041 -0.100458 0.12205334 -0.11650149 -0.10984473 0.1231341 -0.092363946 -0.080431744 0.12208975 0.102194004 0.09142971 0.07518566 0.12820747 -0.12126439 -0.07975512 0.051137324 0.106175095 -0.117371805 -0.081153095 0.090990804 0.074759215 -0.10204319 -0.11858753 0.056815658 0.07970922
held -0.051268768 0.040957987 0.069482796 -0.06733784 -0.062053952 0.06742183 -7.576728e-06 0.072037406 -0.0656741 0.079393566 0.07239929 0.06671264 0.062431872 0.07119413 0.041637674 0.06866053 0.068827435 -0.052749958 -0.070500776 0.060484897 -0.064192444 0.064561084 0.05809678 0.05430243 0.07022986 0.04173262 -0.072467305 0.040524874 -0.069672756 -0.05781197 0.07827465 -0.041427724 -0.06462066 0.04662913 0.02725799 0.07470592 0.081265286 0.06699463 -0.067157656 -0.0487574 0.042374276 0.075722136 -0.046985876 -0.061391756 0.07477629 0.07692583 -0.07397085 -0.07334839 0.05016695 0.0536493
post -0.03255559 0.029279385 0.018522987 -0.020866334 -0.035833366 0.04825621 -0.008335854 0.033783212 -0.05567184 0.052969184 0.044167824 0.024978934 0.040176775 0.04112471 0.03204716 0.051896635 0.024597319 -0.037290137 -0.0057140426 0.033482753 -0.01991755 0.020543898 0.038932685 0.07030899 0.014223474 0.0558736 -0.011797523 0.018777678 -0.04758862 -0.0255409 0.0647061 -0.034842867 -0.050660893 0.046098944 0.03486961 0.009155018 0.0054098694 0.035577774 -0.0338015 -0.06648559 0.033447534 0.040892683 -0.028540997 -0.022796739 0.031222165 0.04485978 -0.060163718 -0.06713583 0.05160123 0.032449678
promotion 0.00020188317 0.029343292 -0.00071462523 0.00027822092 0.00033591193 -0.00017060924 0.017823478 -0.00044668905 0.000108695785 -0.00040954904 -0.00032904957 2.775102e-05 -0.00031286036 -0.0004121625 -5.8569036e-05 -0.00067910244 -0.00052928727 0.00038909653 0.00048669183 -0.0003309817 0.0004607434 -0.00049468805 -0.0004985447 7.973236e-06 -0.00023799035 -0.00034300645 0.00029810987 -0.0005700616 0.00047392742 0.0005146585 -4.845441e-05 6.481942e-05 0.00054162345 -0.0003954421 -0.0039525763 -0.00042531508 -0.0004806798 -0.0006702097 -9.970047e-05 0.00010317084 -0.0005682138 -9.0158515e-05 0.00023493216 0.0002464802 -0.00015268229 -0.00042845847 0.00016414211 -0.00015785047 6.218251e-05 -0.00076965877
women -0.063355 -0.010171851 0.06438055 -0.06854488 -0.06844792 0.069267035 0.0028349026 0.070984505 -0.064446844 0.06884321 0.068944216 0.065033965 0.06743323 0.06822759 0.04693451 0.06279841 0.068023995 -0.0685215 -0.06697387 0.07109881 -0.0661148 0.07067405 0.06959325 0.062339015 0.041637763 0.06791193 -0.0709095 0.048846897 -0.06871631 -0.066949956 0.05854839 -0.0748331 -0.06915711 0.061790258 0.05715214 0.07006156 0.06624471 0.0705632 -0.0702625 -0.026336865 0.032310694 0.06622028 -0.066433735 -0.07063019 0.06684226 0.06865953 -0.06639203 -0.07178811 0.067006595 0.06686147
youth -0.051557377 -0.0064709014 0.05025159 -0.040494397 -0.043473575 0.044216126 -0.028661842 0.03596612 -0.027966613 0.048624802 0.039977744 0.02674472 0.04827836 0.045457646 0.03881198 0.047249723 0.04721157 -0.0464875 -0.052123204 0.04401459 -0.041218996 0.04713516 0.046331383 0.043364614 0.025340775 0.05043446 -0.039183233 0.048388153 -0.044288125 -0.04803412 0.050825134 -0.05402771 -0.04454866 0.04949954 0.004797673 0.05197476 0.039888535 0.039932497 -0.049148172 -0.04573954 0.044733565 0.04947017 -0.05285279 -0.041756485 0.044608567 0.036048934 -0.04455035 -0.03866126 0.029178884 0.049504675
august -0.14016493 0.08648568 0.12665556 -0.12128741 -0.12366547 0.13194908 -0.0021120012 0.13969189 -0.12399083 0.1271302 0.102797784 0.043400846 0.11077496 0.12947215 0.14135043 0.116643034 0.14839976 -0.1185093 -0.12412793 0.11985678 -0.0886549 0.12110455 0.13496256 0.108318366 0.07168829 0.11302393 -0.14447284 0.11865681 -0.11032058 -0.13216317 0.10151978 -0.13013124 -0.14209689 0.10874238 0.09262222 0.1467555 0.12101351 0.13720466 -0.15628031 -0.12481553 0.074394606 0.13985528 -0.10686417 -0.114491284 0.12327227 0.083438136 -0.14228751 -0.13050063 0.105487145 0.13226044
2015 -0.042991906 0.046065416 0.07056875 -0.08657141 -0.076673284 0.07497664 0.004162263 0.09074646 -0.071261466 0.09101818 0.09412854 0.023481699 0.07710136 0.07263045 0.08276839 0.07080164 0.08062692 -0.07220301 -0.057200927 0.070023276 -0.07312401 0.05816751 0.06971541 0.062192485 0.07432362 0.08281301 -0.06904051 0.08107199 -0.06504252 -0.083568804 0.03574832 -0.0574506 -0.08398208 0.0811375 0.043757793 0.07465379 0.048678827 0.05898958 -0.08295914 -0.03689829 0.029853277 0.051783532 -0.05584804 -0.08121632 0.063887246 0.051983926 -0.07714456 -0.051805884 0.021654218 0.082863726
secretary -0.118388206 0.0905867 0.094796255 -0.1159917 -0.06907334 0.07374832 -0.1041359 0.054132737 -0.10164619 0.08441982 0.093173295 -0.002923438 0.084685914 0.08475737 0.06431404 0.10866866 0.1000665 -0.105043955 -0.102786414 0.043428738 -0.03906947 0.08961962 0.0839049 0.10428824 0.05680731 0.06642696 -0.09600968 0.08916552 -0.09302004 -0.08878015 0.051762566 -0.082115516 -0.11463264 0.08127524 0.0109838415 0.03643258 0.09924973 0.09893711 -0.08459028 -0.04808868 0.06811792 0.08841591 -0.05727605 -0.1385806 0.073340505 0.09665961 -0.12619954 -0.1008573 0.10368449 0.0478417
state -0.12534466 0.06810357 0.10753001 -0.12682524 -0.10389487 0.09933076 0.032529872 0.11016749 -0.111293815 0.11705549 0.11087703 0.04364761 0.11349118 0.10467587 0.059448157 0.11648158 0.13131098 -0.114482366 -0.13590284 0.10597339 -0.108445995 0.11854649 0.10906673 0.11121912 0.05685957 0.11277689 -0.08035217 0.078459 -0.101855926 -0.13052385 0.010983955 -0.110459246 -0.13158697 0.11861615 0.0020065142 0.13245147 0.116560794 0.09406566 -0.12784237 -0.060351077 0.05866463 0.0801882 -0.11292561 -0.13972417 0.13657704 0.10283001 -0.11982282 -0.12280153 0.0960636 0.11066539
finance -0.020792827 -0.02106651 -0.006820273 -0.011579594 -0.007990311 0.031045735 0.0014908296 0.016205601 -0.022068406 -0.0004946226 0.008553511 0.024463622 0.006729561 0.0040793596 0.036140464 0.006226595 0.007051199 -0.03195992 -0.017922042 0.023088522 0.0009856635 -0.0070401304 0.008890849 0.0022462525 0.0068680407 -0.004359185 -0.030897755 -0.005100517 -0.0336165 -0.021667873 0.03630799 -0.0006537279 -0.009421511 -0.014110207 -0.0008370133 0.019566357 -0.002789327 0.031991456 -0.019653192 -0.01762081 -0.01365519 0.023579309 -0.008739703 -0.016911404 0.008880124 0.031060778 -0.031735484 -0.033260275 0.010280297 -0.015567941
budget 0.014833615 -0.001921119 -0.012672241 -0.004843343 0.003061651 -0.006492172 0.014279105 0.00042143298 0.0058287852 -0.003569363 0.0013876775 0.008285924 -0.008211662 0.00031059096 0.004293321 -0.004866977 -0.00968032 0.006529651 0.011079598 -0.008273849 0.012694572 -0.012575179 -0.008095329 0.0023410954 -0.013670143 -0.012444456 0.0009090771 -0.038614362 0.011263229 0.00916705 0.007588884 0.017082123 0.004608207 -0.038686376 -0.014967175 0.0039459835 -0.009945727 -0.0015023283 0.009182265 -0.0032577182 -0.038791634 -0.012189505 0.0022751507 0.006596838 -0.0048249154 -0.004659352 0.0022822125 0.003764255 0.005602195 -0.014755487
charge -0.004034393 0.035115357 0.00028604473 -0.0024633398 0.00014816567 -0.0009019984 -0.0038605984 0.0051606735 -0.0033852016 0.0041111126 0.0064827227 -0.0014594271 0.0017093483 0.0035396963 0.033296067 -0.00080832234 0.0032228322 0.00045826027 -0.0011237649 0.00015051138 -0.0014631054 -0.0006721432 -0.0005513548 0.0018541061 -0.0054501197 0.0006362943 -0.0042127063 -0.00035435765 -0.0015777431 0.0004041711 0.0021882828 -0.00032633706 -0.02828516 -0.00083999924 -0.0055741644 0.0048126704 0.003661348 0.030794717 -0.0027221239 -0.034195524 -0.008542451 0.034243733 -0.02678578 -0.0045661563 0.03311203 0.0020562354 -0.003296942 -0.031319078 0.0096674375 -0.0010423417
november -0.14078608 0.12226096 0.14442436 -0.11554411 -0.11530036 0.12778598 -0.028813781 0.12133496 -0.14764029 0.09984653 0.12818798 0.10918989 0.124497555 0.123130865 0.14965135 0.12701254 0.123799175 -0.1331281 -0.1302684 0.13194324 -0.12429765 0.12427233 0.13638379 0.12534498 0.072131105 0.14660037 -0.13310158 0.12188307 -0.12882668 -0.13582595 0.07115297 -0.13798688 -0.14160605 0.12095661 0.103925824 0.13785654 0.0782181 0.14310297 -0.1288611 -0.11398314 0.09109534 0.106223166 -0.1169226 -0.10550923 0.11656019 0.14652374 -0.12145626 -0.12911901 0.07624916 0.09697402
2016 -0.1074909 0.10181613 0.10652862 -0.11688086 -0.11708611 0.123110674 -0.048984144 0.08670262 -0.09619151 0.09477821 0.092501186 0.050867554 0.10201771 0.07660725 0.0814282 0.10610356 0.10861872 -0.10754446 -0.10834625 0.106313154 -0.11862723 0.098225996 0.11922862 0.095845304 0.11708487 0.11541488 -0.06873709 0.11412173 -0.1296051 -0.13291134 0.107633956 -0.12201198 -0.09516885 0.12236463 0.101357676 0.09102879 0.09551024 0.10378531 -0.09465048 -0.06114097 0.08065744 0.10970876 -0.10015524 -0.13725422 0.09762446 0.10227755 -0.07414733 -0.09438165 0.08947907 0.11371914
general -0.096871585 0.049781136 0.073950656 -0.088155754 -0.086777225 0.048230346 -0.049386583 0.06941776 -0.075965405 0.06999162 0.06154669 0.021731675 0.07419331 0.056619752 0.05003267 0.051916678 0.06507219 -0.100788556 -0.09062325 0.03704045 -0.048700243 0.06099462 0.053525683 0.08565005 0.064692885 0.074555434 -0.07538664 0.068485476 -0.054634452 -0.072966345 -0.0023674248 -0.0555404 -0.09945141 0.083284676 0.04284033 0.0869673 0.110459834 0.041441377 -0.08410346 -0.058861718 -0.013668138 0.08471467 -0.072043896 -0.11440596 0.082396716 0.096131764 -0.1006017 -0.0935186 0.09725578 0.06960802
court -0.001922406 0.033659097 0.008802344 0.015884358 -0.0046349578 0.0039077587 -0.03607278 -0.0026295423 -0.024144687 0.03496478 -0.0014957987 -0.028232051 0.0009076643 -0.0042077135 -0.025015488 -0.007907763 -0.0024822918 0.0011553023 -0.0043303883 -0.013498483 0.0032052808 -0.005738933 0.005827967 0.01659934 0.026402198 -0.017373066 0.0033393735 0.03515922 -0.001100703 -0.008827339 -0.025593568 -0.027902992 0.0075920615 0.061743118 0.0634127 0.034515962 -0.011102113 -0.0020282886 -0.036357097 0.01620174 0.02118999 -0.015199349 0.004777369 0.019501772 -0.007754846 -0.008260995 0.0036901364 -0.014351147 0.022706404 0.05100296
2017 -0.11025763 0.097727925 0.09630495 -0.109836936 -0.122749075 0.09074529 -0.0729815 0.10953639 -0.11534908 0.09720063 0.10677905 0.07106757 0.08382482 0.10878454 0.101191096 0.09383741 0.11220354 -0.07987898 -0.1093396 0.06562983 -0.115249656 0.10305492 0.106028445 0.08563118 0.083319604 0.08752968 -0.09328067 0.09092116 -0.0944403 -0.106831595 0.10009836 -0.10307032 -0.10389827 0.08737431 0.046528455 0.1238241 0.06875764 0.09901453 -0.117662184 -0.1329783 0.05938901 0.09557713 -0.08386398 -0.10863171 0.10356581 0.092879266 -0.092692435 -0.08852231 0.10893574 0.115559764
opening -0.013012334 0.013212253 -0.014246922 0.005912025 -0.012905594 -0.0028197397 -0.004735293 -0.02740426 -0.008890071 -0.0034046222 -0.0057096803 0.0071691773 0.0145361945 -0.0016182174 0.0034228184 0.013691806 0.008541983 -0.014049318 -0.01492622 -0.010433497 -0.010002164 -0.013136142 0.017778235 0.0031332513 -0.028896404 0.008239636 0.008577678 -0.012837587 0.009762446 0.0006105088 0.003539285 -0.0068448978 -0.007817303 -0.002575215 0.0068050176 -0.008990714 0.012233675 -0.0055903774 -0.011150616 0.012582589 -0.009786077 -0.0212473 -0.0065444987 0.0037074403 -0.009102869 -0.011929824 -0.0028884585 0.010297015 -0.0098873 -0.037134595
5 -0.113725655 0.09020495 0.108761676 -0.10500983 -0.10440688 0.10565787 -0.06760821 0.06507555 -0.10650456 0.08943429 0.1154085 0.06662338 0.094407044 0.10793472 0.097966194 0.09931637 0.10469169 -0.106783964 -0.07564303 0.111117445 -0.10480132 0.10585423 0.102337 0.09790001 0.08774142 0.089060746 -0.11019264 0.120411314 -0.088644065 -0.1048096 0.10359492 -0.09622989 -0.09808902 0.12351723 0.12529711 0.09216474 0.060289524 0.0890755 -0.080463976 -0.110231854 0.07828608 0.033022806 -0.10070165 -0.05701385 0.10061791 0.082748115 -0.087874286 -0.09342083 0.07377569 0.095380194
21 -0.041246947 0.039703265 0.07408175 -0.085498706 -0.08531712 0.09068174 -0.024727248 0.06925536 -0.059171833 0.04660434 0.09802576 0.10453727 0.08489318 0.07376835 0.07818039 0.084276214 0.095399015 -0.06051742 -0.06029742 0.06689337 -0.08740363 0.10074292 0.07857878 0.07347325 0.06118609 0.094503984 -0.05509616 0.062468268 -0.086045444 -0.087015934 0.04264703 -0.07470543 -0.09502864 0.06754572 0.06148536 0.049080558 0.05347471 0.06308777 -0.07492863 -0.06841828 0.07039373 0.015031703 -0.06265759 -0.06095874 0.073912255 0.08327245 -0.09046606 -0.0761745 0.08633265 0.08357608
2018 -0.09361023 0.031662963 0.072516106 -0.073651545 -0.059901945 0.07379663 -0.010143145 0.053785324 -0.07219467 0.06331789 0.08677757 0.053675503 0.08473421 0.10354059 0.06964535 0.08710994 0.068517454 -0.08173354 -0.07834687 0.07556715 -0.071931005 0.058780503 0.051715072 0.089706175 0.08104726 0.10316942 -0.044443257 0.05251068 -0.0825206 -0.07655483 0.09098296 -0.07239887 -0.049393207 0.05470597 0.004273081 0.0671624 0.09757017 0.09436413 -0.05733676 -0.055713415 0.0746528 0.10211709 -0.062670484 -0.05899287 0.096218586 0.10139169 -0.06275876 -0.096587785 0.07869322 0.060407944
chief -0.0056039323 0.054151256 0.04627978 -0.0536535 -0.044358995 0.040366434 0.039803695 0.041467965 -0.02139361 0.050882954 0.049093828 0.04883199 0.043907143 0.04424321 0.049184453 0.03242205 0.038056836 -0.03607897 -0.044541694 0.046383 -0.048709355 0.04564969 0.041650455 0.045171946 0.0036970393 0.052140187 -0.031435892 -0.011213503 -0.04505077 -0.04599171 0.034283265 -0.054400053 -0.04060673 0.026212024 0.023785017 0.044484805 0.042543866 0.040407404 -0.038781133 -0.05130908 0.043971002 0.05495349 -0.05062446 -0.050941076 0.04548924 0.043431725 -0.0320567 -0.04765032 0.05552415 0.042278513
staff -0.02725697 -0.005815703 0.029452931 -0.04842609 -0.00030243254 0.0040971786 0.026998676 0.014421225 0.03183878 0.04454264 0.025205335 -0.0064159585 0.011775939 0.00080959947 0.017972201 0.011498612 0.008104786 -0.0017149185 0.0035469919 0.030933712 -0.036495145 0.031323135 0.014369003 0.01826654 0.008015896 0.031228397 -0.01071569 0.01641516 -0.03358667 -0.011345362 0.0072276755 -0.011059928 -0.017127782 0.01407102 0.015052454 0.062216878 0.021337586 0.03951439 -0.03155914 -0.003020775 0.018981842 0.029936546 -0.027387522 -0.05347608 0.022743879 0.030528886 -0.018751089 -0.017153773 0.031770743 0.02270038
president -0.000678778 0.061781283 0.03705205 -0.11165586 -0.10272811 0.101756886 0.025286082 0.08917445 -0.04707264 0.11359774 0.09426124 -0.0064073615 0.1095324 0.115567185 0.09427324 0.10407709 0.11149775 -0.09756305 -0.12067799 0.11055525 -0.09391126 0.073507465 0.1171904 0.07825224 -0.002730729 0.11423605 -0.09772328 0.070372015 -0.08145007 -0.08716859 0.11213369 -0.10910336 -0.069497205 0.09181183 0.04680747 0.113493994 0.12574488 0.09431654 -0.1121704 0.05335547 0.06750932 0.033003617 -0.08167383 -0.12694165 0.10738105 0.06318035 -0.091634244 -0.10850131 0.0594484 0.06831583
early -0.052320067 0.04366417 0.07264604 -0.03539117 -0.06984554 0.06535387 -0.014282115 0.07438061 -0.024751201 0.073583335 0.052378267 0.016300876 0.06477352 0.060744744 0.008827698 0.04804636 0.07450218 -0.06541592 -0.04978247 0.053095274 -0.081406236 0.07973861 0.054488458 0.039422072 0.06320262 0.05787174 -0.06072221 0.06339193 -0.038084637 -0.05965695 -0.0021072035 -0.06482519 -0.042699818 0.043304436 0.03702214 0.10017218 0.08071915 0.04533242 -0.06834804 -0.078118384 -0.038905714 0.08029131 -0.044314615 -0.07217389 0.08176134 0.047825824 -0.05817943 -0.07693972 0.03633507 0.046542242
life -0.1317723 0.15979868 0.09921593 -0.10838733 -0.09413915 0.0702332 0.01240043 0.086406715 -0.048904378 0.10133914 0.11248759 0.017200207 0.09864055 0.079948716 -0.018940063 0.073842995 0.105660364 -0.11024114 -0.08460792 0.033786498 -0.07011128 0.04486794 0.06636728 0.07311163 0.097250015 0.07849161 -0.09301932 0.11051862 -0.10291049 -0.07171426 0.06320954 -0.08595243 -0.058751695 0.09206976 0.060691725 0.08986516 0.090931125 0.07657631 -0.051811676 -0.06686251 0.048131652 0.11656038 -0.10675177 -0.108598344 0.10835923 0.1042716 -0.09370787 -0.07384631 0.05769995 0.024503838
olsi -0.026388295 0.019368706 0.03553714 -0.050809763 -0.05445985 0.046930686 0.012349728 0.046810843 -0.05023862 0.059482522 0.04210407 -0.036319595 0.055757057 0.040239528 0.055663962 0.019034553 0.029607074 -0.05601395 -0.045014635 0.04700133 -0.03924511 0.02555081 0.0030468272 0.04568275 0.03386534 0.039883696 -0.04510721 -0.016677717 -0.049087014 -0.038061462 -0.0033106355 0.022510562 -0.043759324 0.021795403 0.038254965 0.028365653 0.045849886 0.045538444 -0.027180417 -0.019893931 0.011837456 0.046981543 -0.013178904 -0.054809954 0.049941465 0.055821378 -0.041189462 -0.050845966 0.042909387 0.044844635
rama -0.04847724 0.023881545 0.048650924 -0.041888207 -0.04286703 0.02332168 0.020039255 0.03321647 -0.01897353 0.0075413277 0.041195452 0.0033637397 0.0452543 0.015927844 -0.0036502448 0.0135299405 0.040344328 -0.044019874 -0.017998682 0.037619762 -0.021098668 0.036740553 0.022553863 0.044369675 0.007578649 0.013591199 -0.017658481 0.025035696 -0.024454948 -0.010886768 0.041045334 -0.0042409096 -0.01831358 0.053537913 -0.013573412 0.046280116 0.04326746 0.01883338 -0.014688467 -0.026048785 0.009335492 0.03885259 -0.04522032 -0.04095924 0.021667317 0.022037411 -0.03900124 -0.045367733 0.038238898 0.02117633
born -0.10200024 0.014898296 0.13244647 -0.095263936 -0.12056747 0.1139984 -0.03104884 0.055856455 -0.12418511 0.106791236 0.09634055 0.00040714876 0.09428054 0.10824298 0.05453507 0.10490355 0.12971452 -0.11118211 -0.12836467 0.10643028 -0.11193609 0.09969351 0.11909578 0.11061478 0.07263331 0.11266846 -0.1078235 0.1462539 -0.1193056 -0.10436032 0.08827393 -0.13019614 -0.13110076 0.1238659 0.06262255 0.11605488 0.09891018 0.105147325 -0.108635895 -0.090265706 0.085408725 0.093256794 -0.13056421 -0.10276756 0.09119481 0.10668518 -0.114554636 -0.10271061 0.05544172 0.091822974
tirana -0.04219007 0.017269315 0.03913814 -0.041121796 -0.04154873 0.036574736 0.0004429863 0.03590375 -0.04250835 0.041843202 0.0374819 0.015143603 0.040878974 0.0397103 0.043629132 0.03860025 0.038903162 -0.0397892 -0.0398385 0.036737394 -0.041609693 0.03874222 0.038245592 0.039314307 0.041778024 0.036694843 -0.042219903 0.041852117 -0.041998215 -0.03972992 0.043144852 -0.030622952 -0.038308654 0.040129375 -0.021282533 0.037586436 0.040430944 0.037241146 -0.039540786 -0.017073363 0.0418047 0.016614018 -0.04137258 -0.040307466 0.040555395 0.03710168 -0.04004849 -0.03977545 0.040141866 0.035723664
albania -0.033601776 -0.026572099 0.028428283 -0.033488404 -0.054619793 0.03163303 -0.019908603 0.031200144 -0.05509868 0.024671208 0.03239055 0.027769929 0.033439416 0.034383774 -0.0025097237 0.043552466 0.050403696 -0.056187112 -0.040241282 0.033779275 -0.0512543 0.026356207 0.034162313 0.057129517 0.02728987 -0.0027648304 -0.055804826 0.007301824 -0.052146357 -0.05154073 0.051898558 -0.033980608 -0.020073911 0.022552915 0.007441659 0.03954549 0.049424324 0.025757434 -0.046466757 0.0035713192 0.025404034 0.05410841 -0.055708855 -0.04923272 0.053664148 0.029282171 -0.0531489 -0.055098493 0.017728196 0.04217718
well -0.047923557 0.01672869 0.037969396 -0.051749438 -0.042779654 0.054507755 0.017076248 0.033111412 -0.04000189 0.08071024 0.068275444 0.0020746924 0.049851526 0.034257427 0.008727976 0.03936681 0.040504605 -0.051912125 -0.049615733 0.04771665 -0.052989546 0.040973734 0.04006341 0.061535243 0.046082012 0.037391804 -0.03909536 0.015630463 -0.04959246 -0.04773172 0.010506607 -0.028237432 -0.011570644 0.029069332 -0.05958956 0.061028168 0.070159435 0.024093308 -0.062383186 -0.008193112 0.04595494 0.08009396 -0.029007541 -0.074904576 0.056578368 0.04362064 -0.053365976 -0.056535784 0.078528814 0.032919835
known -0.01404026 -0.02874541 0.07350082 -0.066519365 -0.06712503 0.049069356 0.0014231082 0.044767514 -0.06503099 0.0650229 0.03962086 0.026615921 0.050092783 0.07037494 0.054644603 0.07382166 0.073760405 -0.025676308 -0.06545884 0.06571258 -0.061937913 0.06862019 0.09075502 0.07804771 -0.018419417 0.05484755 -0.063780755 0.0537399 -0.04455131 -0.045976344 0.028348882 -0.06820113 -0.065194145 0.06386401 -0.03658535 0.075687125 0.059673086 0.06713545 -0.07814611 0.026465937 0.050289787 0.022150274 -0.0294571 -0.073088445 0.07612927 0.04553745 -0.07925142 -0.05235691 0.027694225 0.022702966
sculptor -0.028293379 -0.028238244 0.0026149815 -0.0044783717 -0.0039465586 -0.00016680539 0.0032037608 0.0065242616 0.0031014695 0.022643177 0.0015063856 0.028259223 0.01199193 0.000489112 -0.0022695656 -0.0016673595 0.0028556057 0.0020668856 -0.005924103 0.0047070533 -0.019887904 -0.0007888627 0.025602272 0.018381907 -0.0028866504 0.0056246645 0.0020047922 0.027899528 -0.018989293 0.0012090488 0.007991088 -0.010373612 0.002761162 0.0003705552 -0.028130228 0.026419798 0.028113876 -0.0020277651 -0.023582617 0.003276923 -0.0029578954 0.028288066 -0.016671617 -0.028053168 0.0062042205 -0.0018214721 -0.0003159238 -0.0011118861 0.028179195 -0.0024188668
numerous -0.031095004 0.020153271 0.030623537 -0.03187852 -0.034396525 0.032261603 -0.020260157 0.037739795 -0.034412023 0.032419287 0.03879634 0.037027635 0.03403592 0.033381343 0.033841085 0.033301886 0.03429782 -0.032150656 -0.031959835 0.03022324 -0.033339716 0.033086665 0.032253575 0.033049833 0.03774467 0.03403779 -0.03517606 0.029619014 -0.029795436 -0.030207716 0.030181115 -0.031025328 -0.033048213 0.032819036 0.040469214 0.035615344 0.03520815 0.030212384 -0.037459012 -0.031016944 0.026158309 0.034524135 -0.03204148 -0.037041906 0.035950806 0.03362274 -0.03620571 -0.033875566 0.034965046 0.03389762
communist -0.02148604 -0.011095439 0.026978951 -0.005019415 -0.017307112 0.0010001917 0.0135462 -0.007965461 0.00034890376 -0.0020534212 0.008108592 -0.0035374188 0.014043647 0.029903362 -0.0048078503 0.01681418 0.013508265 -0.02335543 -0.014614627 -0.002335993 -0.009460075 -0.0005273494 0.0019359962 0.020728422 0.02589806 0.025863191 -0.010560267 0.024839967 -0.0026749638 -0.020700924 -0.018021723 -0.020579012 -0.006941818 0.036937363 -0.0067525194 0.026397876 0.0039447863 -0.01797602 -0.006602778 -0.026470553 -0.023874007 0.014199828 -0.012130249 -0.002771513 0.011561781 0.01359654 -0.03470202 -0.03243944 0.0045142663 0.010292389
era -0.01167622 0.011331405 0.018423224 -0.011730278 -0.0187838 0.018335633 0.018499434 0.018659953 -0.011298512 0.018708227 0.018472569 0.011763215 0.01868655 0.018367657 -0.018333131 0.018682588 0.011594667 -0.01859537 -0.018359507 0.0185239 -0.018698737 0.0116734225 0.01871851 0.018711006 0.011559049 -0.011393266 -0.018783342 0.018627672 -0.011527047 -0.01150448 -0.011654258 -0.018531965 -0.018451633 0.018709734 -0.011488186 0.0186013 0.011326683 -0.0074980604 -0.018624417 -0.011428895 -0.018735696 0.011422196 -0.01150671 -0.011302332 0.018674916 0.018520262 -0.018400272 -0.018414054 0.011621644 0.018722154
née -0.008941435 -0.021175565 0.04110381 -0.014037521 -0.044959188 0.045320034 -0.010401811 0.012448361 -0.003414959 0.016955087 0.0014015642 0.0048427307 0.04339392 0.0056583183 -0.010834053 0.044457626 0.012092521 -0.012283733 -0.03722327 0.04527224 -0.03740382 0.004320025 0.009078073 0.015718892 0.0106571065 0.033651616 -0.0045374455 0.006797847 -0.044843864 -0.045379348 0.028450474 -0.01055501 -0.031714723 0.031504586 -0.002255241 0.0144152595 0.04720671 0.013390679 -0.013791564 0.020973865 0.004029703 0.017210599 -0.04110065 -0.010597414 0.03978199 -0.00010888525 -0.0014765562 -0.01364934 0.0030820316 0.0070830155
graduate -0.021954317 0.008940407 0.009082825 -0.008846131 -0.008766094 0.008887823 0.021492667 0.008991772 -0.008858528 0.008669573 0.021564469 0.02155896 0.021796886 0.021841284 0.00910243 0.02176953 0.021964978 -0.021654906 -0.008796089 0.021760521 -0.021569625 0.02160528 0.008819468 0.021712633 0.008802096 0.021847462 -0.021752728 0.008937464 -0.008772869 -0.021860303 0.009005679 -0.021278417 -0.02165929 0.008989306 0.00901155 0.0219028 0.021717168 0.008821459 -0.021614483 -0.021615932 0.021867508 0.02193441 -0.009095146 -0.009071081 0.021877298 0.021698881 -0.021598935 -0.021554291 0.009138694 0.0087619135
medicine -0.03583738 0.021782402 0.01856023 -0.034714196 -0.03399216 0.019622633 -0.021808473 0.018989326 -0.019791543 0.03117581 0.03576974 0.017422836 0.03408986 0.018916836 0.037236065 0.034874156 0.016958192 -0.03441179 -0.033430777 0.033927426 -0.034348536 0.018602911 0.018184684 0.035186253 0.021112178 0.035660375 -0.03521237 0.020798499 -0.034573685 -0.034677148 0.033414308 -0.035920076 -0.033847198 0.03585864 0.037814014 0.019762808 0.01585386 0.018613897 -0.01950435 -0.037168957 0.032486133 0.03739282 -0.019204969 -0.017701242 0.01894071 0.020351358 -0.01779656 -0.035654474 0.020393608 0.035187397
younger -0.0281306 0.04344063 0.037289705 -0.035917442 -0.037151072 0.037061647 -0.004521676 0.027629478 -0.028185295 0.037015393 0.037202924 -0.003419636 0.0334725 0.03038553 0.0053660115 0.04448915 0.048760068 -0.049995955 -0.05296162 0.046333566 -0.031179419 0.017026892 0.03152078 0.038157817 0.022733644 0.022212047 -0.03473579 0.012165806 -0.01771316 -0.04575125 0.03514693 -0.00043435296 -0.043189354 0.038002625 -0.009573651 0.032335974 0.047070716 0.041058477 -0.047145378 -0.026437422 0.0046197246 0.03318386 -0.028859023 -0.052610878 0.023752082 0.022027293 -0.045190725 -0.022124939 0.0012042678 0.04970685
brother -0.037285607 0.0063756392 0.05630029 -0.05130734 -0.050052393 0.052735195 0.07520189 0.063165605 -0.06084284 0.04809204 0.056714073 0.01198368 0.053046424 0.0634269 0.04852742 0.039882615 0.050462432 -0.049573593 -0.054947276 0.07914298 -0.05987744 0.057149384 0.046491276 0.046789855 0.033088923 0.0399442 -0.050221257 0.007980504 -0.055674933 -0.052468814 0.058663756 -0.0287474 -0.061683588 0.0837636 0.031800322 0.06272979 0.07786415 0.052767664 -0.032575224 -0.04502098 0.05639743 0.035415243 -0.058439333 -0.06663646 0.07778155 0.06353261 -0.054080136 -0.051521722 0.040016335 0.08322077
edi -7.3385e-05 0.017878888 0.026665913 -0.024815846 -0.02920401 0.02706206 0.023595804 0.02634495 -0.028063923 0.00039637266 0.026972516 0.009167211 0.028163943 0.026789673 0.021360666 0.029400717 0.0279736 -0.028420875 -0.028293943 0.0284924 -0.029789208 0.028746868 0.029691124 0.028990028 0.0002982362 0.029569047 -0.025144607 -0.0056497985 -0.0298856 -0.028266892 0.029570123 0.0009049241 -0.026835438 0.0005134003 0.0038879053 0.028047713 0.028964864 0.0298385 -0.00020227078 -0.024415776 0.025176328 0.028511154 -0.025451101 -0.025941283 0.023812499 0.023956709 -0.026401293 -0.029222112 0.02666519 0.029706305
current -0.0031590401 0.007049872 0.025654545 -0.02725713 -0.026591187 0.025388917 0.006106738 0.02844286 -0.0049373866 0.027213695 0.026490342 0.022393499 0.02574434 0.026774572 0.02778427 0.025746055 0.024786955 -0.025760202 -0.027444743 0.026980676 -0.023870992 0.026562694 0.0047549703 0.026783567 -0.0016415926 0.0027285167 -0.026137453 -0.0034085591 -0.026201675 -0.026564727 0.03129359 -0.0038464025 -0.024075434 0.001902551 -0.010468577 0.02652756 0.027298633 0.027511995 -0.0063844738 -0.025455052 0.0023683154 0.029220713 -0.0029711304 -0.025435686 0.025930107 0.024489474 -0.026707817 -0.028117117 0.02688833 0.0022847236
played -0.09448138 -2.024864e-05 0.07683267 -0.09245304 -0.0919148 0.08371058 -0.08295102 0.087085865 -0.075092725 0.08419557 0.09151225 0.076407276 0.088202655 0.087907255 0.07631025 0.10055092 0.08610307 -0.08362487 -0.08095062 0.0842899 -0.09263056 0.08239564 0.08899193 0.08516423 0.096573904 0.08892615 -0.09001673 0.06313976 -0.076375574 -0.080218546 0.07552759 -0.06449328 -0.062216744 0.0627857 0.046855606 0.09228026 0.104792036 0.0758107 -0.09204259 -0.0645314 0.049413837 0.07399974 -0.083544046 -0.08958064 0.07865536 0.0731847 -0.084808506 -0.07963102 0.1044158 0.061936233
like -0.022210324 0.037068356 0.054037787 -0.007878221 -0.024228137 -0.011316956 0.019889604 0.023859074 -0.03750279 0.054413572 0.05348887 -0.022714023 0.024343804 0.038136125 0.02422716 0.010921447 0.02918876 -0.0062164133 -0.033988908 0.011971697 -0.05382326 -0.005922076 0.02472069 0.05200975 0.023356598 0.024821045 -0.023983391 -0.0133088445 -0.038093053 -0.02226593 -0.020921128 -0.054184526 -0.04792238 0.054372206 0.007413395 0.008234328 -0.005713153 -0.006729164 -0.023484483 -0.005491469 0.023405815 0.03682686 -0.023875209 -0.007914507 0.04491653 0.007128389 -0.008268775 -0.054262176 0.053990964 -0.0003217296
his -0.13526428 0.039738867 0.100157104 -0.10803425 -0.122090176 0.10603738 -0.021995338 0.10392702 -0.09526381 0.09571382 0.10984286 0.01859956 0.1281891 0.094539404 0.06297774 0.14944817 0.12199522 -0.116397575 -0.11965241 0.112455726 -0.10568433 0.1200771 0.15291823 0.12320224 0.11292257 0.1636274 -0.11223427 0.07490155 -0.10982411 -0.104979046 0.01028818 -0.13814484 -0.06838942 0.091530025 0.05943435 0.14182182 0.12369245 0.11409026 -0.15140668 -0.030527417 0.07264159 0.109830365 -0.096445955 -0.1301022 0.11693958 0.1269508 -0.1081939 -0.10679397 0.061933335 0.10539176
basketball 0.024729153 0.024645979 -0.021828424 0.024323093 0.016172018 -0.023273522 -0.015590929 0.057187885 -0.008774802 0.03188396 -0.013684299 -0.024183927 -0.023731094 -0.008675994 -0.023969807 0.0044025066 -0.022886021 0.023406988 -0.029398188 -0.022809127 0.012231049 -0.02176782 -0.012140965 0.034239072 0.026412638 -0.020125963 -0.004806768 -0.025404979 0.022014229 0.0040431973 0.009191406 0.02307274 0.0053784326 0.0027784305 0.0052746288 0.00435029 0.033886388 -0.024228353 -0.034207612 0.019303206 -0.0034018815 0.034757037 0.017687062 -0.034264203 -0.0021847482 -0.023011137 0.003565619 0.021472022 0.03066902 -0.012282663
till -0.02052917 0.010541545 0.020863527 -0.020470245 -0.0207163 0.010341004 0.00987088 0.010524679 -0.010467284 0.010605101 0.010336479 0.009816337 0.020499988 0.020585299 0.010535199 0.020499866 0.010469911 -0.010561397 -0.010537077 0.0104684625 -0.020556765 0.020756792 0.020785563 -0.008554379 -0.008242626 0.0104790125 -0.020371854 -0.009972247 -0.020645106 -0.020824762 0.010480185 -0.020689186 -0.0105413385 0.020633781 -0.01039993 0.010358031 0.020406563 0.020512292 0.020859117 -0.010787455 -0.0106656 0.020836221 -0.010733934 -0.010528974 0.020634564 0.020449033 -0.010485827 -0.020517161 0.0105746575 0.020443764
1996 -0.049578425 0.02107981 0.04360835 -0.04907397 -0.04164156 0.041510694 -0.032829896 0.031889908 -0.04868704 0.03298074 0.037331864 0.022908598 0.037753694 0.03612481 0.018842075 0.039847348 0.032135073 -0.03633312 -0.04273146 0.042780876 -0.03152567 0.013784796 0.03192806 0.039688323 0.03821636 0.035168607 -0.02156159 0.03087543 -0.03262104 -0.032575242 0.043663263 -0.035619937 -0.04584711 0.035956908 0.039415892 0.034087848 0.050385706 0.03361352 -0.027762722 -0.0341775 0.040772337 0.04353888 -0.052897397 -0.040845398 0.0365218 0.038836833 -0.045283053 -0.03520516 0.020644767 0.028273908
1993 -0.054091632 0.00933453 0.03754819 -0.039193347 -0.053628307 0.0570096 -0.025487332 0.029252449 -0.037405998 0.037969276 0.029104082 -0.019924762 0.04667258 0.036197424 0.026617065 0.02326997 0.039658517 -0.043111317 -0.0573293 0.05473191 -0.030174956 0.041012105 0.038026553 0.055456255 0.006468033 0.04172274 -0.05069169 0.054940753 -0.0259898 -0.042962734 0.024623057 -0.02266606 -0.039311666 0.035010584 -0.014017741 0.026277876 0.031279545 0.055764638 -0.03575352 -0.0029161691 0.029173179 0.027833467 -0.053125974 -0.022879886 0.02199689 0.054434087 -0.034170076 -0.045637984 0.020052055 0.03167714
1997 -0.058196068 0.038043123 0.057187974 -0.053293303 -0.051105253 0.044271775 0.0035995208 0.048965767 -0.053787347 0.058052782 0.060837712 0.035692424 0.05315259 0.06109199 0.048079457 0.057616793 0.053885937 -0.059600424 -0.05732878 0.05858851 -0.05689994 0.062214635 0.060135007 0.05677694 0.023454446 0.05449715 -0.045599777 0.046838805 -0.06303556 -0.05090199 0.017538182 -0.070847645 -0.049776725 0.06574573 0.009238331 0.058461823 0.049548883 0.059989523 -0.050599784 -0.056494538 0.06288088 0.02628166 -0.05958529 -0.046284012 0.055464078 0.06365711 -0.05447612 -0.06667697 0.037693214 0.056169033
he -0.07232913 -0.010599846 0.10651394 -0.101720266 -0.119931296 0.10382457 0.03551755 0.10700752 -0.057087917 0.1296722 0.10799924 0.05203802 0.10437432 0.12400351 0.07534435 0.10258584 0.096973754 -0.105066374 -0.09984767 0.10681767 -0.123715356 0.13332196 0.09417759 0.08817817 0.025661444 0.1018874 -0.07227857 0.08105187 -0.11762657 -0.10444521 0.052407447 -0.116679154 -0.10332053 0.08956995 -0.02586317 0.102064244 0.14381887 0.10840911 -0.09608405 -0.0588815 0.08565995 0.07904349 -0.07570205 -0.122146 0.11853225 0.11068751 -0.1315989 -0.1046307 0.09166884 0.11523956
program -0.036744114 -0.025360215 0.023822105 -0.022258976 -0.04252065 0.019216204 0.032053694 0.041442517 -0.0128139 0.038624756 0.024146665 0.012199309 0.019109853 0.043314666 0.019012354 0.040163428 0.021037456 -0.019234227 -0.040407762 0.037653726 -0.039738156 0.04278635 0.04195435 0.02402549 -0.009084659 0.02260467 -0.029051889 0.02316626 -0.020975953 -0.03785127 0.038938783 -0.004254736 -0.03294047 0.028910022 -0.015240454 0.04504003 0.047499616 0.037004028 -0.04311081 -0.022880992 -0.002417894 0.03795328 -0.019751364 -0.024483524 0.04133558 0.026658615 -0.04506146 -0.026433364 0.012928688 0.022649957
officer -0.045460574 -0.02486335 0.0171746 -0.045259196 -0.027170507 0.04753374 -0.023647794 0.044358287 -0.007704726 0.04803802 0.03746096 0.05537257 0.052827332 0.018528866 0.025035163 0.028421273 0.021354914 -0.01938698 -0.04593282 0.025021384 -0.025468688 0.022337588 0.018310985 0.021351932 0.032611385 0.025403703 -0.042346314 0.030612059 -0.0465548 -0.023206089 0.04404509 -0.026649721 -0.021504626 0.022560718 0.002681476 0.018853491 0.028673947 0.028008828 -0.017198496 -0.04753745 0.046805684 0.029987033 -0.014153405 -0.04306577 0.044850115 0.0182606 -0.04594756 -0.02213544 0.02653538 0.02840705
open -0.036979243 -0.017016817 0.03712747 -0.024374548 -0.03430986 0.016061034 -0.02020063 0.036241166 -0.03867879 0.040539693 0.03477239 0.024094906 0.02507312 0.03773145 0.0032847617 0.02910619 0.02950912 -0.030248502 -0.03049804 0.020667566 -0.03558991 0.032090504 0.00033136204 0.03512585 0.026983853 -0.009982474 -0.023189126 0.021960497 -0.02849561 -0.015979938 -0.0047060302 -0.0089986455 -0.011113969 0.014808779 -0.012332827 0.034657165 0.03244888 0.018888105 -0.021090413 -0.043344166 0.011789487 0.03515888 -0.014148706 -0.040485986 0.027220126 0.03787439 -0.03440738 -0.03245093 0.02530845 0.014452163
society -0.039186586 0.043074246 0.07669944 -0.058682546 -0.0755609 0.057963237 0.029827071 0.029991401 -0.039032977 0.07555962 0.01983761 0.022603635 0.08043032 0.057488184 0.0224066 0.07052883 0.07339592 -0.0794615 -0.0755615 0.08202367 -0.07466591 0.034539208 0.05124959 0.06789121 0.037556585 0.08314753 -0.023031278 0.03435067 -0.06748552 -0.0715514 0.046732824 -0.02542641 -0.046718273 0.046678126 0.04015225 0.04645703 0.059020873 0.072181046 -0.070798494 -0.027672462 0.06330691 0.059051536 -0.0766575 -0.071693085 0.058947176 0.010628463 -0.06367573 -0.04707285 0.034980804 0.08819813
foundation -0.0029113735 0.014759907 0.0022865993 -0.0033287155 -0.002531716 0.0029545138 -0.04456944 0.003001624 -0.022983797 0.0070633623 0.0099714 -0.00970675 0.0021711702 0.0054255626 0.008174683 0.005151959 0.00108172 -0.0074571953 -0.0037655735 0.0013355978 -0.0035285002 -0.0009924141 -0.00011932223 0.0022875099 -0.00014805095 0.007585742 -0.0028753313 -0.00940338 -0.0016190094 -0.00253052 -0.00394114 -0.0047187814 -0.0011531038 0.0007700948 0.013186858 0.016728422 0.0061643687 0.0025616763 -0.009321825 -0.02635472 -0.0046195774 0.007169915 -0.015601061 -0.001421029 0.0060937884 0.013432347 -0.0029763852 -0.004008044 0.0054535004 -0.0034349898
soros -0.030833764 0.03164789 0.03123929 -0.031378508 -0.031218143 0.031386204 -0.020900512 0.031184886 -0.031536967 0.031285122 0.03122707 0.00032793242 0.03142784 0.0315846 0.03129012 0.03133016 0.031136548 -0.031406548 -0.031337406 0.031413354 -0.03139125 0.031495217 0.031428166 0.03129605 0.03133471 0.031346347 -0.031366415 0.031334985 -0.03117638 -0.03105006 0.0003560174 -0.031323396 -0.031454314 0.030751524 0.03082987 0.030915659 0.03147526 0.031215494 -0.031109018 -0.031119972 0.031277817 0.03107713 -0.031614695 -0.030800348 0.03115155 0.03128431 -0.031155394 -0.031139785 -2.1488713e-05 0.031229269
health -0.05424871 -0.008791676 0.06030738 -0.06005918 -0.054576676 0.05657391 0.00463623 0.054204393 -0.06537564 0.060962826 0.06399036 -0.0012167405 0.063902624 0.063380495 0.049608696 0.05685701 0.057581734 -0.058577646 -0.057686087 0.061816767 -0.056107175 0.056203328 0.057640094 0.062092107 0.039142124 0.06431802 -0.048985902 0.06267096 -0.0587139 -0.058330033 0.036305275 -0.06849595 -0.049914595 0.051923506 0.023856653 0.05665672 0.06171802 0.060951397 -0.06352252 -0.027930437 0.022037582 0.0705608 -0.06523335 -0.07087573 0.05191994 0.07129016 -0.058584694 -0.060466334 0.04548437 0.031478226
east -0.05778301 0.040735982 0.045768425 -0.051001966 -0.045389548 0.043470163 -0.0080759125 0.022322327 -0.016171932 0.018646043 0.040974658 0.039566867 0.049587548 0.041633364 0.021823624 0.044169035 0.04637018 -0.021440638 -0.04117533 0.043102745 -0.041487936 0.049803 0.042074688 0.020689428 0.029584711 0.053954847 -0.04340234 0.025022022 -0.022483038 -0.043862306 0.012912392 -0.054042116 -0.01491644 0.023904974 0.00903091 0.041693404 0.050885733 0.050257854 -0.040712386 -0.046730224 0.031143462 0.049325164 -0.043632735 -0.05183846 0.049636923 0.02550307 -0.044434164 -0.04688748 0.030594552 0.019456081
programs -0.035746694 -0.0387486 0.027490005 -0.035394255 -0.024943788 0.02927246 0.0027319596 0.020914491 -0.030323409 0.026505552 0.03388625 -0.021290753 0.031943984 -0.0036797891 0.005421848 0.020149685 0.019067148 -0.020620028 -0.026026158 -0.0014831389 -0.022857325 0.013072907 0.023745745 0.015016084 0.030579448 0.03516786 -0.02801387 0.012235797 -0.019542133 -0.029995998 0.04001509 -0.010085437 -0.025883486 0.032260712 0.02813075 0.029298462 0.021220898 0.028787695 0.014066703 0.015042814 -5.8547797e-05 0.02089718 -0.017364118 -0.03749949 0.030293878 0.02386348 -0.0228205 -0.031795353 0.043581475 0.0051536732
moved -0.03684437 0.06871232 0.045586642 -0.07050019 -0.063855655 0.057692863 -0.046955496 0.057068314 -0.048953254 0.05811177 0.074594736 0.025333764 0.06371594 0.05617811 0.066701844 0.06867246 0.055374764 -0.06936381 -0.06829701 0.06541481 -0.05209197 0.06300344 0.06609865 0.05497686 0.027955705 0.06390474 -0.056859978 0.051708985 -0.0595912 -0.059671722 0.08045091 -0.07685879 -0.054568764 0.055298336 0.065806806 0.07007632 0.06854508 0.06282355 -0.051301148 -0.077705406 0.0697083 0.08102804 -0.028884659 -0.05626956 0.07188297 0.049587544 -0.06937865 -0.06930256 0.048946552 0.06096587
united -0.051007286 0.051080983 0.048359342 -0.073904425 -0.055241473 0.023028694 -0.057242766 0.056132205 -0.039113242 0.03186561 0.054096233 0.032884177 0.024779 0.06767781 0.05062441 0.05862511 0.050796703 -0.048563078 -0.06697303 0.05121012 -0.05551115 0.048920166 0.04848615 0.044148266 0.046236575 0.022679802 -0.07855805 0.02417661 -0.018434636 -0.056838747 0.046553954 -0.036707774 -0.033777338 0.045107838 0.013412797 0.055476904 0.05968857 0.042454112 -0.0711662 -0.008146466 0.035614956 0.05333997 -0.018163048 -0.059865814 0.079614654 0.05520413 -0.06253002 -0.026887035 0.060114834 0.05237709
states -0.01755381 -0.012498389 0.031253576 -0.005165801 -0.016181588 0.019494735 -0.0037110003 0.034663945 -0.011218765 0.021684827 0.017806485 -0.0062743537 -0.004465542 0.0021843 0.034862302 0.02501588 0.015825415 -0.02110325 0.008935392 0.009397121 -0.035401918 0.0008740809 -0.009243 0.001497893 -0.00342166 -0.008712295 -0.012260492 0.01099771 0.0069287093 0.00903484 0.0031221556 0.009129942 -0.010664348 0.006616858 -0.00026301094 -0.00084417826 0.022770988 -0.0029669427 0.009389218 -0.015986357 0.005631493 -0.012729867 -0.02114218 -0.02981158 0.033651903 0.035053484 -0.028491084 -0.0035483302 0.013489058 -0.0035428363
secret 0.011550567 0.042811386 0.01459013 -0.011486385 -0.014824765 0.01211516 0.0034170654 0.047047846 -0.012153199 0.025934601 0.0066530826 -0.026592037 0.018689388 0.014440668 0.0077340174 0.012312901 0.012971582 -0.012610758 -0.01715827 0.016077284 -0.019150931 0.015383327 0.013310304 0.022586249 -0.013348309 0.016805056 -0.014084169 0.0189016 -0.015681308 -0.011445864 0.0073425295 -0.011248588 -0.011495577 0.015297694 0.012555586 0.02257831 0.054646906 0.009596798 -0.02431582 -0.0046959217 0.0023034425 0.029031234 -0.008236006 -0.056391753 0.02042126 -0.011435435 -0.011171105 -0.01712938 0.049985405 0.00804943
service -0.06318556 0.043753657 0.051598925 -0.04763309 -0.06800679 0.070554204 0.0148593765 0.054221388 -0.018640643 0.068027586 0.05159285 0.010309876 0.071106285 0.066828646 0.054674216 0.07314956 0.05378563 -0.06812882 -0.07479367 0.07363134 -0.07277856 0.023808299 0.051557768 0.034155242 0.029915227 0.069914415 -0.034627654 0.012629572 -0.06636649 -0.047423102 0.06551617 -0.056422137 -0.02694526 0.040045902 0.04064694 0.057073887 0.07303462 0.0681692 -0.055077415 -0.03448188 0.045443233 0.050436463 -0.054470643 -0.028907165 0.048398484 0.028438695 -0.04793057 -0.05745939 0.034594715 0.045155287
journalist -0.01874486 0.035949796 0.019817812 -0.030962072 -0.024159543 0.024563566 0.007764956 0.02849939 -0.022391241 0.02652966 0.027289143 0.027412932 0.026920365 0.029509986 0.01918837 0.026406359 0.027442617 -0.027697854 -0.021718765 0.024253607 -0.020050209 0.022104904 0.027053598 0.033780195 0.025481228 0.03402073 -0.028970283 0.021240963 -0.020982586 -0.028356895 0.034823343 -0.019863036 -0.01872879 0.029519064 0.012508072 0.023397714 0.024228174 0.022932844 -0.02350782 -0.014554139 0.018107302 0.03613197 -0.0239833 -0.021719046 0.022606602 0.023597391 -0.02723096 -0.026101496 0.01927345 0.019691058
worldwide 0.022616735 0.009090344 -0.02261014 -0.0056249574 0.008687323 -0.022311967 0.022419421 -0.008934254 0.022318034 0.008749899 -0.022434628 -0.022462564 0.008340815 -0.00904952 0.008172933 -0.022697989 -0.008868187 0.008863405 -0.008943446 0.008894356 0.008659764 -0.022768762 -0.022764819 -0.009037686 -0.008822189 0.022357734 0.022665588 0.01957772 0.022567337 0.009038485 0.022632899 0.008758546 0.022770485 -0.008843662 0.008979878 0.022594213 -0.008794158 -0.022772815 -0.022384956 0.009118969 -0.022311239 0.022673309 0.022421688 -0.008672599 -0.02266636 -0.02271629 0.008903189 0.022686655 -0.009001948 -0.00901397
television -0.046459302 0.029223269 0.06828317 -0.08803934 -0.06604703 0.08741607 -0.029316701 0.0802806 -0.08172332 0.07943543 0.08437175 0.014013544 0.075028054 0.06977863 0.07999174 0.06288464 0.07176895 -0.0794309 -0.07186057 0.07155562 -0.06524375 0.077431455 0.081774615 0.07417671 0.074240126 0.07131676 -0.08429921 0.079112664 -0.044231284 -0.057280663 0.0564955 -0.08798938 -0.06155018 0.06712735 0.084565684 0.08189488 0.06145377 0.08435516 -0.08749167 -0.0033785852 0.07988214 0.08969025 -0.05861067 -0.08016927 0.08304817 0.08438809 -0.07938492 -0.08131777 0.09208313 0.06618024
news -0.030672098 0.057168182 0.06070055 -0.052017543 -0.06912671 0.07939491 0.028053949 0.04096474 -0.054042753 0.059560824 0.07044401 0.038423017 0.07607271 0.044196554 0.06200435 0.067094825 0.06989343 -0.065079644 -0.06793684 0.07435648 -0.053733878 0.050276455 0.06680175 0.059469674 0.05684911 0.07961067 -0.07964349 0.04861145 -0.05235693 -0.06647543 0.03398145 -0.064071074 -0.039691918 0.068299145 0.031564225 0.07421614 0.07804872 0.043556787 -0.05395334 -0.04482329 0.052178726 0.07635085 -0.050092373 -0.07317568 0.075294845 0.066994645 -0.058216378 -0.05850074 0.055079877 0.056937672
foreign -0.026186338 0.0230297 0.041166525 -0.043842856 -0.047230992 0.04471136 0.0006809163 0.03390667 -0.02848877 0.044182714 0.030537149 0.033384047 0.041252002 0.043806676 0.027303232 0.040983155 0.038452804 -0.045971733 -0.04360959 0.048703883 -0.043365784 0.042046152 0.03872942 0.04561249 -0.0015725354 0.04430666 -0.044999555 0.0047877776 -0.037499364 -0.043044332 0.018535534 -0.026206233 -0.03916169 0.038105763 -0.012757297 0.04802805 0.04389577 0.049955327 -0.052377988 -0.031579006 0.024955291 0.029815255 -0.03608187 -0.038573187 0.03912861 0.037060898 -0.04228377 -0.0402314 0.022852577 0.036083046
stay -0.0024158577 0.006055697 0.05043002 -0.038878463 -0.042277817 0.046608366 -0.014342204 0.04610856 -0.017820684 0.050060414 0.03595757 0.003603789 0.029576434 0.06999975 0.029800005 0.054210488 0.038331393 -0.036329657 -0.075122304 0.0516162 -0.05285236 0.049863268 0.045201607 0.04020808 0.019495452 0.071007036 -0.037207942 0.012504778 -0.02586309 -0.033348694 0.06061623 -0.029406046 -0.023117278 0.034344982 0.04697071 0.04268598 0.056123305 0.01600344 -0.040172298 -0.011569587 0.035774626 0.05606632 -0.014461617 -0.038770016 0.055945437 0.04580861 -0.050960887 -0.060421076 0.026072579 0.04828871
worked -0.030357895 0.061801538 0.09766043 -0.07972337 -0.09713588 0.07492841 -0.053814854 0.058378164 -0.029925866 0.08597605 0.043537267 0.009393274 0.07591592 0.060787927 0.031188399 0.09642306 0.09377466 -0.09327036 -0.09994136 0.089459725 -0.066150405 0.07325144 0.08871636 0.10677946 0.014767602 0.09648098 -0.07394806 0.041468024 -0.05941089 -0.08962608 0.08693022 -0.050737116 -0.06473831 0.056114748 0.05480127 0.04121775 0.10181624 0.101807415 -0.10237708 -0.06502792 0.05594931 0.07415248 -0.070660144 -0.06392116 0.05548409 0.0539043 -0.051266756 -0.08184794 0.051455047 0.095308505
manager -0.050199598 0.054805025 0.025224915 -0.028046262 -0.040966455 0.017764494 -0.009611269 0.042189393 -0.02887221 0.044420253 0.038712405 0.041257333 0.025717247 0.04447376 0.021272218 0.024996309 0.02347981 -0.024615247 -0.04487899 0.028435994 -0.02452441 0.021169987 0.027715156 0.04811658 0.014144321 0.016241483 -0.019241722 0.050300896 -0.021694116 -0.023084378 -0.0021175244 -0.027069071 -0.022460539 0.04547728 0.040023517 0.040292867 0.040280316 0.02144759 -0.030439194 -0.030798785 0.017921194 0.026902048 -0.026373984 -0.04487169 0.025026118 0.024195695 -0.040898066 -0.022087388 0.038170286 0.041736368
cancer -0.057042018 0.017184062 0.056525752 -0.057463974 -0.05808047 0.055089198 -0.051426157 0.058389433 -0.056310523 0.05887042 0.05901699 0.052205663 0.05678037 0.057330925 0.05373191 0.056307517 0.057368297 -0.05967285 -0.05919086 0.057921533 -0.055729598 0.05505705 0.057445098 0.054688342 0.05351791 0.059484567 -0.05677408 0.056785475 -0.056189325 -0.056889888 0.061375797 -0.057778355 -0.053883865 0.05924673 0.025388965 0.060200185 0.061585907 0.054939266 -0.06218056 -0.063437045 0.056382935 0.06410186 -0.057421956 -0.05874977 0.059135996 0.056157067 -0.058716737 -0.058359973 0.055854447 0.05970428
institute -0.033255167 0.01833282 0.039259862 -0.052036006 -0.03279473 0.03336671 0.0051407036 0.046662316 0.002482018 0.036258463 0.038153388 0.02304169 0.032742303 0.032272495 0.03686915 0.032985702 0.03670274 -0.02795332 -0.030814134 0.023461571 -0.03706962 0.033024892 0.030761978 0.037517637 0.029305976 0.0325486 -0.05117285 0.03477016 -0.021125734 -0.028725907 0.030313568 -0.027671646 -0.033494502 0.02844826 0.0004916191 0.058429956 0.056613836 0.02926831 -0.03371024 -0.05603089 0.021899339 0.042044755 -0.041242663 -0.056605548 0.05452133 0.058888514 -0.055153787 -0.050526354 0.055711377 0.034950245
detroit -0.019731471 0.010253152 0.010179007 -0.019863956 -0.010568925 0.010440281 0.019783426 0.010447177 -0.0104612205 0.010349147 0.010569735 0.019552063 0.019813234 0.010306008 0.010419765 0.010201306 0.019658273 -0.019587928 -0.019867085 0.010572263 -0.019696712 0.019631647 0.010222111 0.010197817 0.019725446 0.019952018 -0.010163607 0.010613447 -0.019757373 -0.010461009 -0.019348277 -0.010165465 -0.019740596 0.010269931 0.019296383 0.019542815 0.0101667065 0.019759564 -0.010229332 0.017100476 -0.019646104 0.010198642 -0.019943608 -0.019647874 0.019609913 0.019914135 -0.010315054 -0.010342548 0.010150022 0.010488763
mi -0.021324463 0.030140525 0.024246128 -0.030184295 -0.030292025 0.029600503 0.006379243 0.030359777 -0.030510336 0.0043859184 0.03010756 0.00036945334 0.028606365 0.03017412 0.029695587 0.029704805 0.011630365 -0.019993214 -0.023236595 0.027419472 -0.028942803 0.013954111 0.027950656 0.02984239 4.765418e-05 0.030197108 -0.029845785 0.024797667 -0.022816513 -0.029150115 0.018041814 -0.028005548 -0.028633127 0.028451504 0.029926842 0.030175116 0.027153786 0.023633292 -0.025057992 -0.029800678 -0.0012324558 -0.029149229 -0.023955265 -0.030338006 0.029311912 0.030261053 -0.030180167 -0.028678842 0.030625824 0.029075962
one -0.046515502 0.07226885 0.08039498 -0.103044435 -0.099760205 0.0911497 -0.019632744 0.09528015 -0.055440966 0.08310792 0.09697592 -0.004374423 0.101489946 0.06406462 0.029991142 0.09932226 0.099609606 -0.09611758 -0.09609669 0.09860117 -0.089686185 0.08245973 0.110097036 0.11807653 0.08136753 0.111584805 -0.107420556 0.057111748 -0.066300735 -0.071427405 0.014030229 -0.031810895 -0.08241997 0.09184464 0.008455992 0.109096214 0.111304045 0.07825672 -0.116954654 -0.03387306 0.021173723 0.11878165 -0.03481092 -0.08083548 0.095249996 0.074636325 -0.07356407 -0.09097089 0.11285895 0.08857109
49 -0.017952032 -0.009735545 0.012390776 -0.011818478 -0.014838007 0.017896302 -0.032149766 0.012597767 -0.01718167 0.009677747 0.01767366 -0.016521659 0.018089136 0.014396108 0.011380559 0.017674496 0.013212437 -0.012512578 -0.016903816 0.016107962 -0.017872036 0.017401187 0.031052437 0.003409396 0.018251942 0.04111308 -0.017205661 0.011151367 0.011545388 -0.012898033 0.009412905 -0.032512546 -0.011178027 0.013332539 -0.009295093 0.040842976 0.012491684 0.0095035955 -0.001283639 -0.035083666 0.016227994 0.011843644 -0.008933198 -0.017428104 0.017245976 0.035502724 -0.01681062 -0.017171519 0.0099211605 0.013441368
addition -0.049848262 -0.020037208 0.045806743 -0.060465407 -0.05799521 0.05577897 -0.013699576 0.06018681 -0.057232633 0.029606726 0.05931539 0.058912203 0.050395686 0.052373566 0.05596049 0.051042765 0.051504754 -0.0527944 -0.056427702 0.052822888 -0.048179507 0.03978714 0.055799462 0.05774477 0.056974046 0.056873772 -0.063174434 0.008531323 -0.051149905 -0.03311569 0.016377443 -0.03663711 -0.04537152 0.055979498 0.008986984 0.035972998 0.055873778 0.054532107 -0.052694358 -0.05277982 0.044194326 0.063255 -0.05142249 -0.052550755 0.055818003 0.059280243 -0.055510722 -0.05582758 0.055911716 0.039259285
also -0.06840943 0.036159966 0.08850349 -0.13847886 -0.11996781 0.10994597 -0.020224666 0.10197071 -0.06679292 0.13989687 0.1278493 0.05140986 0.11592639 0.12375708 0.11038431 0.10494063 0.115903325 -0.11533644 -0.12073135 0.11368119 -0.11777886 0.10107115 0.112120636 0.12576295 0.08869925 0.12167122 -0.11047914 0.03367935 -0.1335576 -0.11974524 0.12091269 -0.122110695 -0.09021284 0.10035234 -0.002358905 0.11542246 0.13037392 0.117551416 -0.08773385 -0.024614198 0.043634 0.11698373 -0.11612183 -0.15713292 0.11728618 0.09723726 -0.12201834 -0.13936533 0.09460052 0.08133165
consultant -0.02598437 0.0027226098 0.024416845 -0.037592486 -0.030756477 0.036554553 -0.008032294 0.043497514 -0.028524134 0.025198892 0.011438571 0.024408374 0.035768855 0.042275086 0.024917895 0.038308 0.046251185 -0.021296531 -0.039013773 0.026828201 -0.04465795 0.029542413 0.039747022 0.037381504 0.05277678 0.04203712 -0.024013285 0.04291074 -0.043423217 -0.03961087 0.01173685 -0.04623023 0.002675604 0.04485582 0.047849588 0.04912229 0.03973145 0.035264444 -0.045009304 -0.0002895317 0.03091234 0.032602325 -0.014061384 -0.021324152 0.017418146 0.0439754 -0.03833848 -0.01670839 0.027300922 0.04774384
scitech -0.008843918 0.020978458 0.020635089 -0.009332233 -0.009098598 0.020615608 0.009270751 0.009490851 -0.020886438 0.009230891 0.020738907 -0.020983843 0.020831779 0.00947427 0.020661274 0.00935477 0.009064024 -0.009144902 -0.009193738 0.009143566 -0.009511454 0.009447286 0.020866046 0.020723613 0.009452966 0.020770574 -0.020763697 0.009457109 -0.02099452 -0.009386591 0.020730285 -0.00949635 -0.009256237 0.020991433 -0.02091992 0.020827064 0.00927514 0.020699425 -0.009360898 0.020731833 0.020694628 -0.02089894 -0.020841781 -0.020657223 0.020940544 0.020898372 -0.009483323 -0.009319339 0.020855142 0.009149398
start -0.038682245 0.013192516 0.03262984 -0.04092857 -0.03856434 0.038579937 -0.029337712 -0.0004965754 -0.033313595 0.042124294 0.02910855 0.017124051 0.039298076 0.03983481 0.0030682127 0.038726635 0.035414785 -0.04083618 -0.035402842 0.042433433 -0.039791454 0.03131282 0.041075047 0.039410662 0.013417773 0.040438715 -0.0036722643 0.0028638183 -0.040419575 -0.037585437 0.0160571 -0.040717013 -0.022442177 0.039015885 0.04071233 0.042920977 0.041194517 0.04052844 -0.03939854 -0.040384445 0.00093416765 0.0143959215 -0.038304254 -0.038010865 0.037523594 0.03545983 -0.0111613255 -0.039548725 0.04137883 0.040807616
helped -0.0034291737 -0.00786775 0.045924183 -0.04741113 -0.043293685 0.031782493 0.011658986 0.043211587 -0.053763304 0.055601373 0.018424954 -0.027907757 0.04938787 0.04575263 0.050755657 0.0016599424 0.050410565 -0.007550538 -0.039406925 0.050579462 -0.05105268 0.040964514 0.011610963 0.049747538 0.002170242 0.053474694 -0.0017415724 0.030168086 -0.039719693 -0.04950573 0.053415284 -0.030216696 -0.028185045 0.03607528 0.05477746 0.04915115 0.056671824 0.00971047 -0.0277603 -0.01381592 -0.001620244 0.030728765 -0.022893736 -0.05692104 0.045705497 -0.0029890637 -0.03722772 -0.029016627 0.031273928 0.04977255
several -0.05487832 0.018812327 0.04204319 -0.045292675 -0.041227788 0.045793384 -0.04562949 0.028011302 -0.0072006746 0.03121632 0.04339451 0.012322126 0.047425117 0.047821935 0.012387156 0.048227053 0.05064243 -0.042717673 -0.041045208 0.036739685 -0.040434927 0.051429246 0.045036074 0.050781015 0.063526094 0.057439037 -0.023846632 0.038149387 -0.016734494 -0.012109413 0.0013564475 -0.03054986 -0.03184295 0.052362252 0.0012496508 0.046556443 0.050465915 0.021375658 -0.05266092 -0.0015723495 0.046546686 0.020276245 -0.03676263 -0.05262686 0.044876914 0.049559478 -0.05049745 -0.054182034 0.06136488 0.022047242
projects -0.02928024 0.03128165 0.030409576 -0.030278133 -0.030038664 0.030270739 -0.028227858 0.0299039 -0.02954535 0.030044459 0.0302467 0.030553048 0.029737411 0.030090716 0.0308454 0.03012075 0.029983293 -0.029993633 -0.029431863 0.02996317 -0.029742127 0.029944982 0.030136202 0.029733261 0.030318996 0.03005065 -0.02958836 0.029718358 -0.030242246 -0.03003296 0.030676883 -0.030861616 -0.029909361 0.029489474 0.031180356 0.030136174 0.030498832 0.030281905 -0.030121157 -0.030143742 0.030326586 0.030480815 -0.0301721 -0.029637221 0.029598441 0.02959605 -0.030000897 -0.030314459 0.030272504 0.030113908
contract -0.034982145 0.065076716 0.03340776 -0.039049134 -0.030852605 0.0117919855 -0.02905681 0.027733335 -0.038519725 0.022165969 0.014212681 -0.044224374 0.030273275 0.018066846 0.02497993 0.029481824 0.013007629 -0.015213915 -0.034345362 0.024841137 -0.010807521 0.015643181 0.028207708 0.010717112 0.016314331 0.024876742 -0.03363746 0.03444395 -0.024920449 -0.026040284 0.033567775 -0.027654832 -0.011471359 0.015967745 0.01859019 0.01782059 0.01923046 0.02261437 -0.026830059 -0.016626649 0.057143077 0.04412126 0.005643569 -0.017026268 0.019577328 0.019666933 -0.02144709 -0.0065271207 0.018322835 0.024536056
negotiations -0.031193705 0.031049136 0.030983461 -0.031038215 -0.031166272 0.030846987 -0.00058715034 0.031246733 -0.031023635 0.031241167 0.031075321 0.0006827847 0.0312886 0.031212326 0.031052975 0.031212952 0.031239353 -0.031217108 -0.031031879 0.031094084 -0.03108232 0.03107106 0.030921103 0.031135323 0.031235918 0.031246975 -0.030969672 0.031117374 -0.031188883 -0.031254973 0.031131906 -0.031026766 -0.031104669 0.030821512 0.00065944996 0.031243492 0.031094875 0.03090132 -0.030949593 -0.031156486 0.030775731 0.030816466 -0.031046016 -0.030997539 0.03127361 0.030869095 -0.030991107 -0.031223036 0.031152593 0.031082278
national -0.032166306 0.02662749 0.04522501 -0.039906763 -0.031007243 0.06873913 -0.051344197 0.05025832 -0.046736635 0.0138169555 0.084208496 0.02008355 0.028025553 -0.0010084992 0.04984763 0.040923465 0.039840218 -0.019602204 -0.009176143 0.030987544 -0.041858688 0.043106217 0.031261012 0.017538497 0.06859662 0.07148499 -0.08450934 0.03519132 -0.033672687 -0.015435159 0.016965797 -0.07355974 -0.017630855 0.048809253 0.07359317 0.06539861 0.034682296 0.031118909 -0.03612196 0.0011295279 0.050173633 0.044030905 -0.002228489 -0.048755657 0.022921091 0.06309906 -0.03710647 -0.030996697 0.028637614 0.065047674
personal -0.060170032 0.030748563 0.07634267 -0.0705871 -0.06574887 0.034956254 -0.009035231 0.047226 -0.0775679 0.06484642 0.061655287 0.007421055 0.05764346 0.06626929 0.007342319 0.03588372 0.05238823 -0.06698825 -0.048534524 0.068079166 -0.059797958 0.069174126 0.036635246 0.05094412 0.027236309 0.023387752 -0.04338913 0.08634324 -0.046303403 -0.05604189 -0.03477318 -0.0069122463 -0.04129859 0.07354647 0.008974832 0.08329223 0.057843454 0.05951542 -0.045758925 -0.04525225 -0.022539979 0.059584606 -0.05144002 -0.05899353 0.042989116 0.045445953 -0.038051687 -0.057621635 0.040674116 0.064118624
currently -0.048763044 0.04079307 0.046039768 -0.0511133 -0.04439734 0.028150974 -0.04052691 0.027593195 -0.030448172 0.0526383 0.050138414 -0.028104622 0.05018353 0.051445883 0.045636065 0.04457709 0.048242014 -0.049914062 -0.051716253 0.04326108 -0.049657248 0.050228223 0.05134293 0.030364342 0.052694365 0.05102905 -0.030238708 0.05201865 -0.03084174 -0.031251162 -0.0037832316 -0.0521401 -0.031737085 0.030301433 0.025656352 0.050439768 0.0483821 0.05089462 -0.0313496 -0.034615517 0.015098413 0.04656071 -0.00429621 -0.052564338 0.05104278 0.0507474 -0.030001601 -0.050682098 0.026736828 0.03190148
lee -0.026826127 0.036352217 0.028266799 -0.029264346 -0.028756158 0.028422559 -0.014535532 0.027384205 -0.027623149 0.03225029 0.030381454 0.017884934 0.030196631 0.02995985 0.02667069 0.027678298 0.027858939 -0.029271081 -0.030038236 0.028701665 -0.027983619 0.029123925 0.028885096 0.03165786 0.029656917 0.029949065 -0.02916991 0.028550554 -0.027523039 -0.028753739 0.028291492 -0.029698571 -0.025506476 0.027656114 0.019253911 0.030822983 0.028309679 0.027226815 -0.033922564 -0.034646675 0.018863512 0.03847109 -0.026554737 -0.03391379 0.028847853 0.02802816 -0.030979456 -0.029756857 0.034641728 0.027633522
25 -0.04607911 0.04892262 0.042632945 -0.033158768 -0.06018152 0.054436736 -0.05677478 0.06616866 -0.078538656 0.0068803797 0.045626976 0.016817272 0.059946258 0.041750703 0.031804208 0.058640767 0.06774098 -0.06269361 -0.057213582 0.060303222 -0.05287731 0.06201318 0.054585405 0.056395072 0.054662436 0.0608228 -0.052718673 0.040890463 -0.054183878 -0.05481051 0.056841984 -0.056535847 -0.051603153 0.06329437 0.023944817 0.04364118 0.041590944 0.039055783 -0.052373853 -0.038305037 0.057480313 -0.018530034 -0.032232735 -0.048960585 0.055869535 0.037107214 -0.060195573 -0.045917157 0.051473264 0.07331014
1994 -0.010904776 0.008100434 0.012698517 -0.025234044 -0.0272541 0.048604064 0.027612006 0.018389521 -0.040909596 0.045993507 0.043665923 0.006381569 0.051550824 0.023981404 0.023692682 0.042344138 0.043781146 -0.043498587 -0.04687554 0.02734195 -0.049414992 0.01750617 0.043976657 0.01966393 0.030466327 0.051852625 -0.016650368 0.04350728 -0.047204826 -0.018986337 0.048748292 -0.04961794 -0.04065683 0.011316356 0.04757327 0.022760473 0.022687579 0.030034335 -0.065669335 -0.0208493 0.019578476 0.059642818 -0.018056875 -0.026113067 0.036625467 0.039895654 -0.017530942 -0.01646477 0.030699397 0.037132178
south -0.033406764 0.012707225 0.06712064 -0.07179371 -0.064475365 0.062088538 0.028557196 0.07213259 -0.025398737 0.07215202 0.07353807 0.020444985 0.071415424 0.06595453 0.042042807 0.07194472 0.07060367 -0.053355973 -0.06687467 0.07082948 -0.059311446 0.0638176 0.072966315 0.08542954 0.04672057 0.06605189 -0.05211068 0.034085087 -0.068878934 -0.056277134 0.054280072 -0.054530483 -0.046167165 0.054847285 0.051322404 0.056288473 0.09615027 0.06755639 -0.07458483 -0.026638335 0.0672893 0.06667565 -0.05154538 -0.07386745 0.07729247 0.0863611 -0.06502889 -0.08143101 0.09537876 0.055399813
korean -0.030220926 0.02994132 0.030078676 -0.0014786903 -0.030215137 0.0015330693 -0.029889857 0.029993951 -0.029823823 0.0014198908 0.0014460318 0.030139733 0.0013514258 0.001607174 0.0013861527 0.029969124 0.0014304155 -0.02988478 -0.0018046336 0.0016228101 -0.029948292 0.0017758571 0.030217677 0.03021236 0.03000744 0.0017383595 -0.0015884091 0.029846296 -0.02994448 -0.030018294 0.0302435 -0.029928215 -0.030251173 0.030246656 0.0014186418 0.0015023354 0.001692382 0.0015968853 -0.001814086 -0.0013585427 0.0299833 0.001579084 -0.02991442 -0.0015174248 0.030171307 0.001684367 -0.030148977 -0.001473976 0.030174553 0.030023685
freestyle -0.030171834 0.027366783 0.029899806 -0.029876797 -0.029799948 0.030326549 -0.01952243 0.02997937 -0.029682003 0.029964613 0.030000433 0.030514112 0.03018555 0.029894486 0.029162226 0.03034853 0.029914055 -0.03010358 -0.030004416 0.029590968 -0.029894771 0.02999976 0.02973671 0.029922888 0.030185563 0.030194188 -0.029465511 0.030236786 -0.030219952 -0.029812656 0.030813482 -0.029756252 -0.030300703 0.029509308 0.02921466 0.029315783 0.030107321 0.02995584 -0.029996267 -0.029895023 0.03036683 0.030075407 -0.029895611 -0.030239066 0.030107625 0.030207215 -0.02981131 -0.03027289 0.02963461 0.02951505
internationally -0.019019868 0.022563213 0.017053979 -0.013946104 -0.017432386 0.017476901 -0.026550194 0.015242874 -0.01843366 0.016722929 0.020658232 0.008320495 0.016686102 0.016357755 0.0071379896 0.015361979 0.015902197 -0.01851796 -0.01667654 0.014100885 -0.017721122 0.017923344 0.018430755 0.016214803 0.01728487 0.013004388 -0.012169779 0.02477839 -0.015630748 -0.016402164 0.01762186 -0.018324086 -0.013965523 0.016137477 0.0061484794 0.019532189 0.017691964 0.013546111 -0.017036542 -0.015704563 0.00742904 0.016425492 -0.014324509 -0.015864402 0.017905222 0.012757116 -0.01568561 -0.016787224 0.012132838 0.015307667
29 -0.018860307 0.0038573332 0.0334865 -0.03451633 -0.047772676 0.051934466 0.00063807075 0.04110987 -0.056407377 0.036083076 0.04904827 -0.03821524 0.04380306 0.054322347 0.0220351 0.037261643 0.0499686 -0.03640483 -0.049393456 0.03568924 -0.04671055 0.033246424 0.039120905 0.05343507 0.04834755 0.03970542 -0.040763818 0.041855495 -0.041550886 -0.04302416 0.034207627 -0.021502836 -0.055625297 0.052321374 0.0065558376 0.020546202 0.03179075 0.047393057 -0.04157622 -0.042167667 0.0080164615 0.027264666 -0.029236427 -0.054202247 0.037856147 0.05346222 -0.05402009 -0.0521839 0.048552584 0.052087165
1856 -0.03524949 0.032391123 0.042172816 -0.038615037 -0.039213635 0.040490128 0.027706461 0.03742394 -0.035271052 0.03761623 0.036627114 0.03565367 0.038504384 0.04047972 0.035897207 0.040039986 0.0401359 -0.04158356 -0.04090572 0.03906823 -0.04159555 0.04210232 0.03915729 0.039549224 0.03785103 0.04027931 -0.036172338 0.03866541 -0.038035106 -0.038938615 0.04131551 -0.03731309 -0.039524928 0.04003958 0.03929943 0.038242273 0.04276754 0.041614283 -0.03751594 -0.041222706 0.042619083 0.034991596 -0.040224418 -0.035802994 0.039736904 0.041970413 -0.038267937 -0.038317557 0.027838714 0.04103944
groton -0.01704615 0.01339162 0.017621608 -0.01715252 -0.017307008 0.017538559 -0.034939725 0.017665878 -0.017821256 0.017531117 0.017104747 0.015166853 0.017209945 0.044336554 0.017083785 0.044405393 0.016922332 -0.017375138 -0.044952516 0.044425778 -0.044471357 0.04402527 0.044379972 0.01766511 0.042232916 0.017309228 -0.045128845 0.043798625 -0.017373407 -0.017288083 0.043513414 -0.04411442 -0.04419086 0.01799028 0.04461609 0.044586916 0.017106827 0.044313796 -0.044531073 -0.041223064 0.04383195 0.044543467 -0.01747268 -0.019108232 0.044584364 0.044396747 -0.0440864 -0.017616514 0.016963983 0.017438086
tompkins -0.024499968 0.02982109 0.024356686 -0.024189182 -0.023513112 0.024054881 -0.024498409 0.025497027 -0.024825018 0.024951538 0.024345566 0.026111014 0.023275884 0.024531865 0.023406811 0.023903336 0.024053978 -0.02337935 -0.024446197 0.023348855 -0.024061516 0.025404587 0.024296375 0.025276665 0.026842186 0.024167193 -0.024487393 0.025307305 -0.023586104 -0.024451748 0.023529993 -0.02534791 -0.024513768 0.02500283 0.02583594 0.023433013 0.025038278 0.024265079 -0.025164505 -0.026757017 0.02546017 0.02371905 -0.023582086 -0.025486335 0.02437048 0.024532106 -0.024574848 -0.025053397 0.025829226 0.025138784
county -0.09321868 0.007995538 0.09928742 -0.09400419 -0.09512605 0.09868154 0.0066966955 0.079455316 -0.04119585 0.10643432 0.08766168 0.106868654 0.09082723 0.09880113 0.08352215 0.10280988 0.100011386 -0.10145652 -0.097386576 0.097905785 -0.092311405 0.096344076 0.09512777 0.08183696 0.062309485 0.088833 -0.09151576 0.10876801 -0.09627255 -0.10303889 0.056377016 -0.093957655 -0.10006883 0.08720177 -0.0009095472 0.10083359 0.10051352 0.10303371 -0.10011768 -0.044000085 0.11603814 0.091155514 -0.103132315 -0.09495298 0.09743372 0.102423675 -0.09456563 -0.10304016 0.06171348 0.09095378
new -0.13632178 0.039471745 0.07921567 -0.1297602 -0.11060298 0.116714 -0.08668388 0.07529321 -0.13883276 0.1442501 0.088966824 0.06740404 0.12133741 0.12069506 0.06637773 0.12333301 0.106447875 -0.123948276 -0.10085527 0.12368403 -0.117476836 0.08316563 0.10689965 0.110366605 0.06026742 0.11384927 -0.093511045 0.14329027 -0.12444928 -0.12372104 0.10478702 -0.11550098 -0.09048372 0.09451841 0.08797922 0.111455366 0.10084123 0.10709633 -0.12913868 -0.1021749 0.08243334 0.11297004 -0.12799805 -0.10957833 0.09491427 0.10085215 -0.09609316 -0.09421352 0.08190265 0.111783035
york -0.040854804 0.062725335 0.035568513 -0.038275156 -0.039562866 0.06774181 -0.06428185 0.03959169 -0.062154446 0.06650204 0.03989747 0.03563136 0.039782614 0.03682485 0.03721524 0.0389005 0.037809934 -0.06852373 -0.039780483 0.03863072 -0.040747788 0.03922945 0.03978697 0.041046247 0.04941838 0.039712682 -0.04053665 0.07290435 -0.04076007 -0.040147625 0.07289659 -0.042265043 -0.042958867 0.03965619 0.02463027 0.036813088 0.06728211 0.0410719 -0.067004204 -0.035507597 0.052901607 0.033540066 -0.03838216 -0.068775594 0.03915073 0.06870228 -0.039006013 -0.03740549 0.0733088 0.03940273
typewriter -0.025875218 -0.003307172 0.025498588 -0.025688758 -0.025575306 0.025394425 0.0035586883 0.026137032 -0.026273796 0.026504079 0.022415532 0.01514574 0.026127819 0.026338657 0.026676135 0.026134323 0.026010396 -0.02599403 -0.025306629 0.026188554 -0.022130242 0.0260202 0.026484586 0.026146162 0.02676179 0.025478315 -0.02640488 0.026672667 -0.02618681 -0.026082186 0.0037257683 -0.02681476 -0.025945911 0.026199676 0.026642827 0.026445493 0.026009694 0.026405348 -0.025543995 -0.003647331 0.02629546 0.026472138 -0.026519667 0.003289648 0.026018519 0.018698374 -0.025965504 -0.026508713 0.025730055 0.026515199
company -0.052362382 0.017844379 0.0484358 -0.054197285 -0.049415454 0.049075916 -0.042005457 0.051561583 -0.034951817 0.050018966 0.050217528 0.0064023305 0.048653416 0.018119147 0.054102324 0.044640604 0.050780162 -0.0457245 -0.047611624 0.048052628 -0.043879867 0.047778487 0.0495419 0.046554543 0.046847478 0.049719524 -0.053729724 0.046901096 -0.05484585 -0.05302845 0.008266371 -0.04210102 -0.05145272 0.04245849 -0.020402575 0.037805375 0.056484986 0.054852217 -0.05143834 0.00024671134 0.036457326 0.015759429 -0.050667003 -0.043288726 0.05565046 0.051132787 -0.05000434 -0.050687972 0.0636326 0.040981285
renamed -0.011340867 0.020403596 0.02060459 -0.020276047 -0.011108796 0.0111144325 0.020493181 0.01124129 -0.011275903 0.011430318 0.020654174 0.020406721 0.011127735 0.020549577 0.020631298 0.02060689 0.02063108 -0.01101947 -0.020385107 0.011377105 -0.02037902 0.011330895 0.011233673 0.020695886 0.011327187 0.011289822 -0.011123027 0.020638075 -0.011111686 -0.020541085 0.011054664 -0.011227724 -0.020494118 0.011149478 0.020655638 0.011110687 0.011066161 0.020499337 -0.020399343 0.010999634 0.0112126265 0.011390194 -0.02050072 -0.011017023 0.020407742 0.020267483 -0.020491736 -0.011183856 0.020268975 0.020327529
corona -0.021831008 0.015748333 0.0007316649 -0.010476927 -0.011813042 0.008970041 0.016388247 2.583389e-05 -0.01023674 0.00083596323 0.030445473 0.010804209 0.0077444627 0.0044581937 0.007768469 0.004313695 0.0059199855 -0.01221186 -0.0014952354 0.012434466 -0.0042190654 0.012003827 0.0045393766 0.0089334445 0.028352173 0.01005359 -0.0019715866 0.014967334 -0.0054039033 -0.010226395 0.010502122 -0.010382257 -0.005019441 0.015954517 0.018959736 0.0027818014 0.0069947112 0.019945774 -0.00183852 -0.003530033 0.02942834 -0.00036396188 -0.012224571 -0.00021448931 0.008512881 0.004356709 -0.0020640607 -0.0067508835 0.0002449826 0.004217538
1914 -0.021086715 0.0140803885 0.014875184 -0.019799719 -0.01730391 0.028274711 -0.015118655 -0.00045227385 -0.014593059 0.02765962 0.0305495 0.020172866 0.002129094 0.022730883 0.015391439 0.0194275 0.024960503 -0.023933187 -0.01988397 0.021614566 -0.018490303 0.022013307 0.014460192 0.014537482 0.027290229 0.032352913 -0.0042863633 0.028350947 -0.014248215 -0.01812858 0.027292356 -0.032717176 -0.02164 0.0061881947 0.014525336 0.030792722 0.0030035994 0.019434977 -0.014452967 -0.03281158 0.00028188335 0.01689728 -0.03242671 -0.013652761 0.00296369 0.015122183 -0.0332517 -0.01489341 0.0025419062 0.0061462237
merged 0.010321264 0.0011996515 0.0003257353 -0.0022372236 -0.006939624 -0.0027802254 -0.0009827815 0.020635715 0.026134044 0.014746905 0.022560783 0.00014072252 0.0013881143 0.030532777 0.025887966 0.013410725 -0.008852625 -0.02942501 -0.0032936423 0.02382747 -0.0110062985 0.030647758 5.676327e-05 0.007524803 -0.0024538885 0.024762059 -0.02672569 -0.00018383011 -0.009750889 0.027560128 0.030790064 0.02860268 0.001253169 0.030426411 0.028314974 0.013620452 0.005485467 0.01700614 0.028726283 0.0028573496 0.00027020942 0.0003653669 7.733296e-05 -0.017103847 0.0062469738 0.02883909 -0.01779846 -0.023492979 0.013906072 -0.013852384
death -0.02736798 0.03384615 0.038585752 -0.010266704 -0.03595575 0.02252834 0.03014178 -0.002889473 -0.033442818 0.00050486566 0.031851325 -0.01113076 0.034163404 0.037346996 0.019213395 0.011434107 0.010669382 -0.037202038 -0.035518136 0.03887434 -0.040268317 0.037704498 0.0029333197 0.014263308 0.029199686 -0.004343201 -0.001359934 0.0047115907 -0.0034897549 -0.033897918 0.032035206 -0.026997155 -0.010415846 0.0006363593 0.032040317 0.038570076 0.03675776 0.03842276 -0.0073857508 -0.06758181 0.008207708 0.035617758 -0.015758822 -0.011925226 0.043346033 0.018312076 -0.03966404 -0.0304778 0.016390169 0.01370461
form 0.013538787 -0.017177328 -0.019423317 0.033815354 0.03839959 -0.0052732187 -0.00553534 -0.006750148 0.03010028 -0.039564576 0.023935808 -0.011443744 -0.016746819 -0.011539476 -0.016395178 0.033635758 -0.009892034 0.034233447 0.030469364 -0.010286491 0.029688416 -0.038989816 -0.039953724 -0.0060201758 0.039283272 0.0052457503 0.025827186 -0.00051289564 0.03871894 0.039354663 0.00902707 0.017042981 0.031722847 -0.017305758 -0.005580163 -0.02924486 0.0132914325 -0.036513552 0.016660143 0.014358642 -0.013107862 -0.021015575 0.02246681 0.03588776 -0.034559995 -0.013967679 -0.008397977 0.025204705 0.033885643 -0.01846661
smith -0.021573571 0.021419676 0.009801936 -0.009933385 -0.00979912 0.009849339 -0.01006768 0.009864463 -0.009786309 0.021359632 0.021507958 0.00976276 0.00974494 0.021687426 0.021453919 0.02152862 0.010025392 -0.0101166945 -0.009905085 0.01001757 -0.009965086 0.010108299 0.021622943 0.01001637 0.009882408 0.0101083955 -0.010109779 0.00979875 -0.009992158 -0.01006235 0.021471104 -0.00980048 -0.0098603275 0.010125423 0.00998271 0.00981746 0.009855851 0.009739196 -0.009978971 -0.021580352 0.021642566 0.021825707 -0.009690372 -0.021689218 0.021760298 0.021665175 -0.021780781 -0.009746747 0.009861807 0.00969192
mechanics 0.030256093 0.02074773 0.0061279293 0.0051190956 0.021841163 -0.020466505 0.02214283 0.00467204 0.007845536 -0.0060628736 0.024914932 0.005813701 -0.010063944 0.020744348 -0.009300426 -0.01576415 -0.01735285 0.026674893 0.018919896 0.006122259 0.019696824 -0.020858472 0.0065957964 0.009378963 0.005356285 -0.017427597 -0.016264714 0.027326882 0.007638273 0.007874196 0.0073380354 -0.012814434 0.034031913 -0.033387534 -0.031807292 0.015395951 -0.00051960995 -0.017615879 0.03293256 0.011742021 0.033283506 -0.005010728 -0.006796417 -0.006675678 -0.019324943 0.010444975 -0.017603211 0.010823397 0.029896736 -0.031981263
conger -0.050112978 0.025998548 0.052238274 -0.049278237 -0.051806916 0.051004298 -0.007050835 0.030637452 -0.032534137 0.044462822 0.029651724 0.049485862 0.051464293 0.03305926 0.032488156 0.034568965 0.052679926 -0.051484607 -0.051795762 0.052427743 -0.052897114 0.03414575 0.05258616 0.050836265 0.050629377 0.05143079 -0.0020667985 0.050832316 -0.050906155 -0.05273283 0.0302839 -0.032913193 -0.034648746 0.05207975 0.05045341 0.033556014 0.03242126 0.050088428 -0.05248624 -0.025035206 0.034760147 0.049961407 -0.03124741 -0.050096378 0.0346544 0.026671266 -0.031047137 -0.048860222 0.02761702 0.052922893
member -0.085396096 0.005940672 0.11753861 -0.08838558 -0.100275956 0.07862006 -0.07786024 0.0933878 -0.048509866 0.11854247 0.073185496 0.07740412 0.091510445 0.08666727 0.098387085 0.07588814 0.09462382 -0.10992439 -0.08996408 0.08963833 -0.09303216 0.12596409 0.08678968 0.08596598 0.070997015 0.08112371 -0.0742096 0.08991557 -0.08802292 -0.094229005 0.051287025 -0.09049384 -0.0542942 0.07808074 0.061819006 0.100281045 0.10627698 0.1088268 -0.10145698 -0.0906 0.092642955 0.11607625 -0.099092156 -0.09573029 0.09509551 0.08444959 -0.09871979 -0.10629958 0.114647076 0.090129435
assembly -0.042293496 0.0068172873 0.041379675 -0.043416582 -0.041586272 0.06024895 0.014993055 0.014877299 -0.020121325 0.050861668 0.01729715 0.024939142 0.067513 0.019363105 0.057418507 0.038218852 0.029221144 -0.04810297 -0.039767582 0.040349413 -0.02055208 0.019670688 0.039318025 0.04557753 0.04081329 0.056798752 -0.026213683 0.017681774 -0.037387073 -0.031822335 0.05045777 -0.05896783 -0.022666907 0.013775909 -0.014622623 0.01775154 0.042308066 0.06476943 -0.029196227 -0.059139524 0.027079139 0.07108713 -0.02877657 -0.057062827 0.021082256 0.05613818 -0.021659235 -0.06279044 0.05664838 0.012712883
co -0.010223707 0.047171608 0.04441354 -0.03103002 -0.04324281 0.04692546 0.017420134 0.041609704 -0.037216257 0.05098841 0.028242048 0.026308928 0.045511838 0.04068834 0.033017736 0.037798915 0.043080162 -0.04253143 -0.03994894 0.033003844 -0.045290794 0.046339087 0.05903048 0.040193856 0.02370476 0.031102737 -0.0451686 0.0415339 -0.040401928 -0.03526318 -0.009827104 -0.04022052 -0.044361703 0.04262115 -0.05687492 0.0509958 0.037714403 0.046005346 -0.04241799 0.009710031 0.013408649 0.030643996 -0.02917736 -0.030529832 0.03318564 0.036772657 -0.04272367 -0.03056786 0.024392292 0.041431285
1900 -0.0017724654 0.029687809 -0.001275488 0.0010924079 0.0012150763 -0.0010286615 -0.029647117 -0.0020064588 0.0019386219 -0.0017026 -0.0017380954 -0.02709318 -0.00060628576 -0.0013818988 -0.029480375 -0.029581722 0.00043031093 0.0017503566 0.001422165 -0.0014271415 0.0013795752 -0.0018276734 -0.00047091115 0.01698765 0.029284513 -0.0014783813 0.0014109514 0.011441696 0.0011079222 0.0012584922 0.0043899217 -0.025171854 0.00103273 0.02735672 -0.016742557 -0.0015884041 -0.0019667498 -0.0016749834 -0.0067555625 -0.0015510112 0.027684355 -0.026795529 0.0005376831 0.0013241764 -0.0016376697 -0.0016286599 0.0013453914 0.0019369082 0.029477086 0.01581669
1901 0.023927921 0.0072910036 -0.0073829712 -0.0071735187 -0.024290243 -0.00668476 0.024175385 0.024002308 0.02402349 0.024016801 0.024275184 -0.006947786 0.024357252 -0.0070345467 0.024169635 0.024036663 0.024187133 -0.023777395 0.0064777243 0.023768941 -0.022965198 -0.0069627995 0.023908805 -0.007147434 0.024148775 0.02380275 -0.024349958 0.024205005 -0.024055643 -0.023545686 -0.006921861 -0.0072164023 0.024238262 0.024355227 0.024356414 0.024062982 0.024341865 -0.0067316773 -0.024086192 0.024048874 -0.024131428 0.024041584 0.006930709 0.006916624 0.024212867 -0.00668332 -0.007295726 0.0065965573 0.0071858084 -0.007354806
senate -0.050767373 0.024247233 0.051110215 -0.04854201 -0.043681957 0.055261787 -0.012195285 0.054184545 -0.04590198 0.051457234 0.04971782 0.013901832 0.05352495 0.052678637 0.016466683 0.052706935 0.052095056 -0.05100499 -0.045966364 0.04704207 -0.054727964 0.02493516 0.048973884 0.049085807 0.02199252 0.0548306 -0.053176906 0.026378311 -0.047668595 -0.045295116 0.033455424 -0.046285883 -0.054357618 0.048545636 0.04177109 0.05250053 0.022848345 0.024432866 -0.042092707 -0.0071716025 0.014754245 0.015634654 -0.027478982 -0.051786467 0.054780204 0.022464821 -0.05141832 -0.052599143 0.05287142 0.05405688
1909 -0.029761404 0.0010658628 0.029862799 -0.029692968 -0.029839337 0.029830506 -0.0015586206 0.0018477639 -0.02961331 0.029960439 0.029429944 0.030043967 0.030010175 0.029786475 0.029475715 0.030012857 0.030062167 -0.030037962 -0.02967406 0.029833954 -0.029902123 0.030007731 0.030065216 0.029809251 0.029794853 0.0016292937 -0.029954415 0.029746678 -0.029937508 -0.029675536 0.029911444 -0.029779697 -0.029756619 0.029969718 -0.029594634 0.029981244 0.029813763 0.029884651 -0.0016777364 -0.02964802 0.029651653 0.029993484 -0.0018020645 -0.029982453 0.029687084 0.029801598 -0.030104626 -0.029870152 0.030012468 0.0018275543
1910 -0.039472785 -0.009471374 0.043187104 -0.04548733 -0.042819984 0.040265735 -0.034581088 0.015793812 -0.014274907 0.04429065 0.044625383 -0.0087205935 0.041845698 0.045127116 0.044884764 0.04198573 0.044712376 -0.04294648 -0.043578714 0.042553198 -0.04242787 0.04162155 0.04387738 0.040414575 0.045108113 0.043751102 -0.016347727 0.022986244 -0.014583092 -0.015475978 0.04458177 -0.042944472 -0.029157948 0.021886384 -0.0133301355 0.01463818 0.015890481 0.043160986 -0.04194584 -0.011011847 0.038036574 0.011030944 -0.013277253 -0.01542986 0.015363886 0.0132392 -0.044635884 -0.04454106 0.014551966 0.03884799
january -0.14985754 0.08799077 0.10511022 -0.09203269 -0.103892356 0.1119225 -0.0025897592 0.065185115 -0.11589373 0.11278465 0.103137724 0.05085473 0.07074073 0.090161756 0.11183026 0.080071084 0.11878616 -0.093290254 -0.07769762 0.090282075 -0.071011834 0.09750663 0.079711474 0.08766605 0.08924295 0.08849492 -0.0852199 0.11990502 -0.08881455 -0.086294204 0.03690291 -0.11792268 -0.07104588 0.078959644 0.11852805 0.08935375 0.100909114 0.1199629 -0.10784414 -0.105718106 0.051214922 0.12739673 -0.0889637 -0.0929573 0.089670174 0.08295756 -0.08864065 -0.09526651 0.08708185 0.10179286
opposed -0.029736694 0.030025065 0.0016577804 -0.0014039907 -0.0016663495 0.029665455 -0.029499898 0.02965073 -0.0036758096 0.0016410202 0.029651849 0.0011181659 0.0016003093 0.0014288323 0.029634448 0.0014591448 0.029951515 -0.029779293 -0.0016281707 0.030001462 -0.0014372666 0.0018182448 0.02979664 0.0015309321 0.029556716 0.029584475 -0.029989129 0.03002079 -0.0018176573 -0.0015117474 0.02986105 -0.029689552 -0.02974838 0.029806089 0.029725019 0.029912425 0.0016238072 0.001672376 -0.0016517402 -0.0015983123 0.0017755124 0.0013698413 -0.0015295233 -0.0018433629 0.0015996665 0.029631432 -0.0015024652 -0.0017260353 0.0018098713 0.030030375
election -0.01619814 -0.004166724 0.043447185 -0.011900567 -0.039080273 0.010492626 0.028010515 0.01647163 -0.03749703 0.033304367 0.03037978 -0.012469178 0.015676668 0.03031911 0.038404327 0.014592697 0.026740855 -0.032086015 -0.02695621 0.04037221 -0.028362913 0.013943869 0.0014152182 0.01488949 -0.026383677 0.021582589 -0.006845539 0.012250103 -0.048524708 -0.029955635 -0.005039313 -0.014499832 -0.0373417 -0.009114372 -0.014450167 0.03752028 0.030425357 0.03683428 -0.02032859 -0.046871644 -0.007355916 0.025210185 -0.037601523 -0.0142323375 0.03513844 0.01152551 -0.026743373 -0.03926239 0.014707515 -0.0064830123
p -0.030887077 0.00017683124 0.031460088 -9.874657e-05 -0.031029569 0.00031360684 0.0016281002 0.031177819 -7.984696e-05 0.031241324 0.031066911 0.030344522 0.031214736 0.031348914 0.03108186 -5.2485546e-05 0.03113382 -0.03105097 -0.00015338555 0.00012150373 -0.031336714 4.3860942e-05 0.0003317196 0.00016411961 0.031015025 5.7634137e-05 -0.03101807 0.031163543 -0.03143601 -0.031401347 0.031209938 5.2211635e-05 -0.00019955612 -5.0427163e-05 -5.156211e-05 0.031097243 9.7909244e-05 0.031113926 -0.00021152759 -0.02869089 -5.0900024e-05 0.03080261 -0.000677561 -1.69872e-05 0.031126326 0.03110959 -0.03115322 -0.0314461 0.030478967 0.031142365
allds -0.026919495 -0.016972458 0.01890084 -0.019922968 -0.015976097 0.01696316 -0.032908898 0.033081267 -0.016439194 0.020993356 0.020932993 0.024646984 0.015628915 0.011144004 0.011615663 0.011161786 0.045329656 -0.04749059 -0.019530935 0.017671805 -0.020620016 0.02003427 0.04187761 0.007128752 0.050076455 0.022268593 -0.0024869943 0.026853586 -0.048011363 -0.01534721 0.017760811 -0.022820668 -0.050673306 0.01506418 -0.0047695045 0.018651545 0.012898755 0.014505722 -0.013260334 0.0038724286 -0.011494261 0.01466115 -0.021485092 -0.019686189 0.015170512 0.04130503 -0.038627774 -0.012419826 0.042194825 0.017506706
pro -0.01842582 0.013934805 0.042383775 -0.01826879 -0.018269083 0.018231034 0.010764023 0.018035628 -0.018129386 0.041812673 0.018027572 0.042504657 0.018179921 0.018354688 0.018311678 0.018391065 0.018528203 -0.042287353 -0.018288676 0.018395036 -0.017998395 0.042125165 0.04233652 0.018201934 0.042376127 0.018341562 -0.042341378 0.018620547 -0.042406872 -0.018614374 0.01848057 -0.018621648 -0.042362623 0.04258892 0.018701913 0.01792841 0.018201174 0.042433776 -0.018049125 -0.018692803 0.042789087 0.01798715 -0.018404495 -0.017923988 0.018130021 0.018284641 -0.018132828 -0.018536415 0.018081209 0.018471124
tempore -0.0072368965 -0.007316718 0.0047252565 -0.007095889 -0.0189251 0.01912098 0.018615782 0.007198066 0.0070898863 0.019183144 0.0071282447 0.0032810008 0.019136418 -0.0066806907 0.0013706065 0.018784879 0.019137597 -0.0074591707 -0.0072413906 0.0074939895 -0.0072002653 0.018823592 0.0066421404 0.0066516427 0.007138336 -0.018477611 -0.018956967 0.007333693 -0.018955946 -0.01883672 -0.005408172 -0.019222965 -0.018698547 0.0074594216 0.007253871 0.01900525 0.019033028 0.01881603 0.006555224 0.0070040086 -0.019113978 0.019104492 -0.017647753 -0.019119484 0.0072024884 -0.018657895 -0.018975446 -0.01911816 0.0073359534 0.018990053
accused -0.019596754 0.04265838 0.030660404 -0.026285827 -0.041210182 0.02413992 -0.008799023 0.005463163 -0.0050200075 0.03106463 0.025624335 0.03354057 0.04304568 0.030356111 0.025655963 0.023855222 0.043771807 -0.039028488 -0.03829955 0.015867906 -0.022981338 0.015760504 0.018750636 -0.0006085138 0.021867063 0.016500127 -0.024238344 0.020961015 -0.018804526 -0.034567844 0.018777782 -0.03507047 -0.026749844 0.04504791 0.001940142 0.054970212 0.04059151 0.037369583 -0.004173257 -0.04572111 0.01972546 -0.018564036 -0.0043422105 -0.05179029 0.048619967 0.04678264 -0.030036926 -0.007697129 0.04923926 0.025629021
demanded 0.025045477 -0.0067045386 -0.024631865 0.0068903477 0.006878416 -0.0067773694 0.006780076 -0.006499669 0.0251792 -0.006890473 -0.0068741404 0.024869818 -0.0068771187 -0.0065380116 0.025201214 -0.0068193353 -0.0067278356 0.0067981533 0.025220972 -0.024821062 0.0068713906 -0.0066164616 -0.024811158 -0.025100358 -0.024827743 -0.0064830566 0.025108846 -0.0066315755 0.0064935125 0.0069077187 0.006491791 0.0063501755 0.024947772 -0.025168234 0.024911163 -0.006592158 -0.024987044 -0.006434216 0.007252935 0.0064487304 0.0065829023 -0.006825135 0.025031434 0.024783812 -0.00688362 -0.02499507 0.0067990585 0.006814878 -0.0065947524 -0.006861493
received -0.0697966 0.055218276 0.07884276 -0.074294224 -0.081270196 0.08268699 0.0371783 0.074129656 -0.05642895 0.06413437 0.07271716 0.0035551335 0.08484533 0.074778184 0.08056582 0.084733255 0.063209996 -0.08202033 -0.08724098 0.08375126 -0.08128279 0.07634475 0.07857153 0.09412314 0.075794 0.08957384 -0.08428694 0.02593669 -0.0844104 -0.08277051 0.07995045 -0.07715617 -0.08928639 0.071378514 0.025724895 0.073552065 0.072742335 0.07399215 -0.078103125 -0.07278683 0.059402276 0.03898286 -0.0802212 -0.06706187 0.07709364 0.08505587 -0.07905747 -0.080011174 0.08498222 0.086838275
members -0.06290301 -0.02129805 0.068057716 -0.0664036 -0.05962272 0.06478255 0.005464166 0.069746494 -0.055133946 0.06605571 0.061908066 0.08027256 0.063749306 0.064790085 0.044813443 0.059000134 0.06908122 -0.063738815 -0.06766919 0.061064325 -0.05545979 0.06632257 0.061292 0.06274222 0.012273994 0.05794783 -0.04085908 0.063365 -0.06653403 -0.06938817 0.05039802 -0.059141003 -0.065031685 0.049562138 0.013632557 0.071214296 0.05076554 0.06789019 -0.068489164 -0.074079596 0.0406238 0.072407685 -0.06546532 -0.06668416 0.07029985 0.05520518 -0.06715291 -0.059655193 0.054667056 0.054923665
eventually -0.05444929 -0.010494413 0.019239996 -0.0526114 -0.043329608 0.002011388 0.03866673 0.028593497 -0.011361822 0.02624046 0.03869999 0.023626555 0.014520418 0.0046487064 0.027819932 0.0016150179 0.0063416697 -0.017979648 -0.028644977 0.019615887 -0.006928513 0.027268555 0.006231257 0.02696539 0.02638517 0.051402085 -0.00026281763 -0.025181334 -0.016232457 -0.017611833 0.009265562 -0.02572949 0.0057516983 0.015032042 0.012854947 0.05054805 0.04981895 0.025456931 -0.055202115 -0.03764975 0.016941004 0.030539501 -0.012562615 -0.051227707 0.015213061 0.0012989896 -0.02039911 -0.010817021 0.049141623 0.002665129
found -0.025853429 0.01782175 0.022576751 -0.01966335 -0.020004066 0.027005384 -0.008458399 0.021942506 -0.021520285 0.024713928 0.025504705 0.020109996 0.024133611 0.024750372 0.027770927 0.0307498 0.021847293 -0.019312704 -0.02056862 0.02461768 -0.016380282 0.021858398 0.015607776 0.024055654 0.038172286 0.027321998 -0.019166429 0.017573822 -0.027343862 -0.026657486 0.027871858 -0.028350068 -0.026278708 0.016453791 0.029119963 0.027954383 0.024890603 0.026922395 -0.016755179 -0.046691228 0.014592694 0.027679252 -0.029021954 -0.022243982 0.021254612 0.030754248 -0.025805209 -0.027359843 0.033146925 0.030770035
resigned -0.047184344 0.034371726 0.02362585 -0.055977196 -0.06490685 0.065407336 -0.039418567 0.042342175 -0.06325382 0.037301917 0.039372433 0.021085965 0.039256178 0.04200553 0.06773404 0.01813244 0.03655761 -0.038665578 -0.041757993 0.06605938 -0.039825007 0.034614854 0.06320484 0.01930592 0.05869621 0.03809959 -0.03158239 0.052255835 -0.06493923 -0.06406739 0.06692664 -0.05996567 -0.06669339 0.053750817 0.05215104 0.036314197 0.039849665 0.040703993 -0.028899165 -0.039763156 0.067055866 0.036413893 -0.039556943 -0.0378986 0.038123168 0.01382861 -0.040909667 -0.025254453 0.03462878 0.06092143
first -0.1377434 0.103539556 0.10063729 -0.09501781 -0.10353055 0.09749988 0.0050260294 0.10477374 -0.10679545 0.11039522 0.10405537 0.093595974 0.12017747 0.13389505 0.07534199 0.11352223 0.108057015 -0.10636802 -0.116551384 0.09605615 -0.10485055 0.09936051 0.108707435 0.13801298 0.11797707 0.1300875 -0.11670018 0.11378224 -0.11619125 -0.09578572 0.021814 -0.13125816 -0.0931048 0.11485471 0.034586914 0.099677786 0.1461064 0.09151355 -0.13694715 -0.090294674 0.039434776 0.11650381 -0.062152896 -0.14193727 0.12817758 0.11970944 -0.12970036 -0.12596793 0.14200763 0.119024016
